svm_type one_class
kernel_type linear
nr_class 2
total_sv 249
rho 1.44598e+08
SV
1 1:723 2:1 3:7 9:1 11:1 38:1 39:2 40:1 41:1 42:1 1566:2 1568:1 1571:1 1576:1 1578:2 1586:2 1587:2 1594:2 1596:2 1597:1 1600:3 1615:4 1618:1 1642:1 1675:1 1699:1 1705:1 1750:5 1804:1 1805:1 1836:1 1839:1 1871:1 1931:1 1947:1 1984:1 1988:1 2018:1 2027:2 2028:2 2033:3 2034:9 2035:5 2036:3 2037:2 2038:1 2039:1 2040:1 2041:1 2042:1 2043:2 2044:1 2045:1 2046:1 2047:1 2048:1 2049:1 2050:1 2051:1 2052:1 2053:1 2054:1 2055:1 2056:1 2057:1 2058:2 2059:1 2060:1 2061:1 2062:1 2063:1 2064:1 2065:1 2066:1 2067:1 2068:1 2069:1 2070:1 2071:1 2072:1 2073:1 2074:1 2075:2 2076:2 2077:1 2078:1 2079:1 10393:1 10440:1 10467:1 10470:2 10666:1 10675:2 10780:1 10877:2 10894:1 10925:1 10930:1 10975:1 11028:1 11040:1 11041:1 11042:1 11245:1 11412:1 11560:1 11604:1 11628:1 11662:1 11710:1 11723:1 11756:1 11769:1 11804:1 11805:1 12163:1 12445:1 12867:1 12868:3 12869:1 12870:1 12871:1 12872:1 12873:1 12874:1 12875:1 12876:1 12877:1 12878:1 12879:1 12880:1 12881:1 12882:1 12883:1 12884:1 12885:1 12886:1 12887:1 12888:1 12889:1 12890:1 12891:1 12892:1 12893:1 12894:1 12895:1 12896:1 12897:1 12898:1 12899:1 12900:3 12901:1 12902:1 12903:1 12904:3 12905:1 12906:1 12907:1 12908:1 12909:1 12910:1 12911:1 12912:1 12913:1 12914:1 12915:1 12916:1 12917:1 12918:1 12919:1 12920:1 12921:1 12922:1 12923:1 12924:1 12925:1 12926:1 12927:2 12928:1 12929:1 12930:1 12931:1 12932:1 12933:1 12934:1 12935:1 12936:1 12937:1 12938:1 12939:1 12940:1 12941:1 12942:1 12943:1 12944:1 12945:1 12946:1 12947:1 12948:1 12949:1 12950:1 12951:1 12952:1 12953:1 12954:1 12955:1 12956:1 12957:1 12958:1 12959:2 12960:2 12961:1 12962:1 12963:1 12964:1 12965:1 12966:1 12967:1 12968:1 12969:1 12970:1 12971:1 12972:1 12973:1 12974:1 12975:1 12976:1 12977:1 12978:1 12979:1 12980:1 12981:1 12982:1 12983:1 12984:1 12985:2 12986:1 12987:1 12988:1 12989:1 12990:1 12991:1 12992:1 12993:1 12994:1 12995:1 12996:1 12997:1 12998:1 12999:1 13000:1 13001:1 13002:1 13003:1 13004:1 13005:1 13006:1 13007:1 13008:1 13009:1 13010:1 13011:1 13012:1 13013:1 13014:1 13015:1 13016:1 13017:1 13018:1 13019:1 13020:1 13021:1 13022:1 13023:1 13024:1 13025:1 13026:1 13027:1 13028:1 13029:1 13030:1 13031:1 13032:1 13033:1 13034:1 13035:1 13036:1 13037:1 13038:1 13039:1 13040:1 13041:1 13042:1 13043:1 13044:1 13045:1 13046:1 13047:1 13048:1 13049:1 13050:1 13051:1 13052:1 13053:1 13054:1 13055:1 13056:1 13057:3 13058:1 13059:1 13060:1 13061:1 13062:1 13063:1 13064:1 13065:1 13066:1 13067:1 107119:1 107120:1 107121:1 107836:1 108409:1 109066:1 109249:1 109250:1 109251:1 109252:1 109253:1 109254:1 109255:1 109256:1 109257:1 109258:1 109259:1 109260:1 109261:1 109262:1 109263:1 109264:1 109265:1 109266:1 109267:1 109268:1 109269:1 109270:1 109271:1 109272:1 109273:1 109274:1 109275:1 109276:1 109277:1 109278:1 109279:1 109280:1 109281:1 109282:1 109283:1 109284:1 109285:1 109286:1 109287:1 109288:1 109289:1 109290:1 109291:1 109292:1 109293:1 109294:1 109295:1 109296:1 109297:1 109298:1 109299:1 109300:1 109301:1 109302:1 109303:1 109304:1 109305:1 109306:1 109307:1 109308:1 109309:1 109310:1 109311:1 109312:1 109313:1 109314:1 109315:1 109316:1 109317:1 109318:1 109319:1 109320:1 109321:1 109322:1 109323:1 109324:1 109325:1 109326:1 109327:1 109328:1 109329:1 109330:1 109331:1 109332:1 109333:1 109334:1 109335:1 109336:1 109337:1 109338:1 109339:1 109340:1 109341:1 109342:1 109343:1 109344:1 109345:1 109346:1 109347:1 109348:1 109349:1 109350:1 109351:1 109352:2 109353:1 109354:1 109355:1 109356:1 109357:1 109358:1 109359:1 109360:1 109361:1 109362:1 109363:1 109364:1 109365:1 109366:1 109367:1 109368:1 109369:1 109370:1 109371:1 109372:1 109373:1 109374:1 109375:1 109376:1 109377:1 109378:1 109379:1 109380:1 109381:1 109382:2 109383:1 109384:1 109385:1 109386:1 109387:1 109388:1 109389:1 109390:1 109391:1 109392:1 109393:1 109394:1 109395:1 109396:1 109397:1 109398:1 109399:1 109400:1 109401:1 109402:1 109403:1 109404:1 109405:1 109406:1 109407:1 109408:1 109409:1 109410:1 109411:1 109412:1 109413:1 109414:1 109415:1 109416:1 109417:1 109418:1 109419:1 109420:1 109421:1 109422:1 109423:1 109424:1 109425:1 109426:1 109427:1 109428:1 109429:1 109430:1 109431:1 109432:1 109433:1 109434:1 109435:1 109436:1 109437:1 109438:1 109439:1 109440:1 109441:1 109442:1 109443:1 109444:1 109445:1 109446:1 109447:1 109448:1 109449:1 109450:1 109451:1 109452:1 109453:1 109454:1 109455:1 109456:1 109457:1 109458:1 109459:1 109460:1 109461:1 109462:1 109463:1 109464:1 109465:1 109466:1 109467:1 109468:1 109469:1 109470:1 
1 1:546 2:1 3:3 11:1 43:1 44:1 45:1 1551:1 1552:1 1557:1 1558:1 1562:4 1567:1 1570:1 1572:1 1576:1 1577:2 1578:3 1586:1 1593:1 1600:3 1613:1 1615:4 1623:1 1630:1 1652:1 1705:1 1839:5 1940:1 1984:1 1987:2 2026:1 2073:1 2079:1 2080:10 2081:1 2082:1 2083:1 2084:1 2085:1 2086:1 2087:1 2088:8 2089:1 2090:1 2091:3 2092:1 2093:1 2094:1 2095:1 2096:1 2097:1 2098:1 2099:1 2100:1 2101:1 2102:2 2103:1 10369:1 10370:1 10380:1 10383:1 10436:1 10437:1 10438:1 10450:2 10464:2 10465:1 10490:1 10503:2 10693:1 10694:1 10695:4 10696:1 10699:1 10700:1 10703:1 10704:1 10705:1 10706:1 10707:1 10708:1 10711:1 10712:1 10715:1 10716:1 10757:1 10868:1 10931:1 11017:1 11040:1 11041:1 11042:1 11091:1 11134:1 11272:2 11280:1 11412:1 11413:1 11460:2 11467:1 11511:1 11739:1 11740:1 11772:2 11809:1 11939:1 12135:1 12669:1 12714:1 12781:1 13025:1 13026:1 13068:1 13069:1 13070:1 13071:1 13072:1 13073:1 13074:1 13075:1 13076:1 13077:1 13078:1 13079:1 13080:1 13081:1 13082:1 13083:1 13084:2 13085:1 13086:1 13087:1 13088:1 13089:1 13090:1 13091:1 13092:1 13093:1 13094:1 13095:1 13096:1 13097:1 13098:1 13099:1 13100:1 13101:1 13102:1 13103:1 13104:1 13105:1 13106:1 13107:1 13108:1 13109:5 13110:3 13111:1 13112:1 13113:1 13114:1 13115:1 13116:1 13117:1 13118:1 13119:1 13120:1 13121:1 13122:1 13123:1 13124:1 13125:1 13126:1 13127:1 13128:1 13129:1 13130:1 13131:1 13132:1 13133:1 13134:1 13135:1 13136:1 13137:1 13138:1 13139:1 13140:1 13141:1 13142:1 13143:1 13144:1 13145:1 13146:1 13147:1 13148:1 13149:1 13150:1 13151:1 13152:2 13153:1 13154:1 13155:1 13156:1 13157:1 13158:1 13159:1 13160:1 13161:1 13162:1 13163:1 13164:1 13165:1 13166:1 13167:1 13168:1 13169:1 13170:1 13171:1 13172:1 13173:1 13174:1 13175:1 13176:1 13177:1 13178:1 13179:1 13180:1 13181:1 13182:1 13183:1 13184:1 13185:1 13186:1 13187:1 13188:1 13189:1 13190:1 13191:1 13192:1 13193:1 13194:1 13195:1 13196:1 13197:1 13198:1 13199:1 13200:1 13201:1 13202:1 13203:1 13204:1 13205:1 13206:1 13207:1 13208:1 13209:1 13210:1 13211:1 13212:1 13213:1 13214:1 13215:2 13216:1 13217:1 13218:1 13219:1 13220:1 13221:1 13222:1 13223:1 13224:1 13225:1 13226:1 13227:1 13228:1 13229:1 13230:1 106422:1 106489:1 106490:1 106519:1 106739:1 106740:1 106741:1 106745:1 106746:1 106750:1 106751:1 106752:1 106753:1 106754:1 106755:1 106756:1 106761:1 106765:1 107119:1 107120:1 107628:1 107935:1 108429:1 109428:1 109471:1 109472:1 109473:1 109474:1 109475:1 109476:1 109477:1 109478:1 109479:1 109480:1 109481:1 109482:1 109483:1 109484:1 109485:1 109486:1 109487:1 109488:1 109489:1 109490:1 109491:1 109492:1 109493:1 109494:1 109495:1 109496:1 109497:1 109498:1 109499:1 109500:1 109501:1 109502:1 109503:1 109504:1 109505:1 109506:1 109507:1 109508:1 109509:1 109510:1 109511:1 109512:1 109513:1 109514:1 109515:1 109516:1 109517:1 109518:3 109519:1 109520:1 109521:1 109522:1 109523:1 109524:1 109525:1 109526:1 109527:1 109528:1 109529:1 109530:1 109531:1 109532:1 109533:1 109534:1 109535:1 109536:1 109537:1 109538:1 109539:1 109540:1 109541:1 109542:1 109543:1 109544:1 109545:1 109546:1 109547:1 109548:1 109549:1 109550:1 109551:1 109552:1 109553:1 109554:1 109555:1 109556:1 109557:1 109558:1 109559:1 109560:1 109561:1 109562:1 109563:1 109564:1 109565:1 109566:1 109567:1 109568:1 109569:1 109570:1 109571:1 109572:1 109573:1 109574:1 109575:1 109576:1 109577:1 109578:1 109579:1 109580:1 109581:1 109582:1 109583:1 109584:1 109585:1 109586:1 109587:1 109588:1 109589:1 109590:1 109591:1 109592:1 109593:1 109594:1 109595:1 109596:1 109597:1 109598:1 109599:1 109600:1 109601:1 109602:1 109603:1 109604:1 109605:1 109606:1 109607:1 109608:1 109609:1 109610:1 109611:1 109612:1 109613:1 109614:1 109615:1 109616:1 109617:1 109618:1 109619:1 109620:1 109621:1 109622:1 109623:1 109624:1 109625:1 109626:1 109627:1 109628:1 109629:1 109630:1 109631:1 109632:1 109633:1 109634:1 109635:1 109636:1 109637:1 109638:1 109639:1 109640:1 109641:1 109642:1 109643:1 109644:1 109645:1 109646:1 109647:1 109648:1 109649:1 109650:1 109651:1 109652:1 109653:1 109654:1 109655:1 109656:1 109657:1 109658:1 109659:1 109660:1 109661:1 109662:1 109663:1 109664:1 109665:1 109666:1 109667:1 109668:1 109669:1 109670:1 109671:1 
0.5 1:984 2:1 3:10 9:1 11:1 49:1 50:1 51:1 52:1 1556:1 1557:4 1558:1 1562:1 1567:2 1568:1 1569:2 1570:1 1571:2 1578:1 1585:1 1600:2 1612:3 1613:1 1615:6 1623:4 1652:1 1655:5 1658:2 1694:2 1696:1 1699:1 1705:2 1823:1 1825:1 1850:1 1862:1 1883:3 1896:1 1964:1 2006:1 2007:1 2016:1 2023:2 2059:1 2066:1 2074:2 2079:1 2141:1 2172:1 2186:1 2187:1 2188:1 2189:1 2190:1 2191:4 2192:1 2193:1 2194:1 2195:1 2196:1 2197:1 2198:7 2199:3 2200:1 2201:3 2202:1 2203:1 2204:1 2205:1 2206:2 2207:2 2208:1 2209:1 2210:1 2211:1 2212:1 2213:2 2214:1 2215:1 2216:1 2217:1 2218:1 2219:2 2220:1 2221:2 2222:1 2223:2 2224:1 2225:1 2226:1 2227:1 2228:1 2229:2 2230:1 2231:1 2232:1 2233:1 2234:1 2235:1 2236:3 2237:1 2238:1 2239:3 2240:1 2241:1 10405:1 10406:1 10440:1 10444:1 10445:1 10446:1 10450:1 10516:1 10553:1 10678:1 10693:1 10694:1 10695:3 10696:1 10699:1 10700:1 10704:1 10705:1 10706:1 10707:1 10708:1 10711:1 10712:1 10715:1 10716:1 10769:1 10790:1 10877:1 11051:1 11172:1 11236:1 11291:1 11348:1 11412:1 11467:1 11539:1 11654:1 11656:1 11712:1 11792:1 11804:4 11872:1 11888:1 12006:2 12007:2 12069:2 12072:1 12314:2 12432:1 12758:1 13145:1 13220:1 13333:1 13334:1 13421:1 13422:1 13424:1 13551:1 13698:1 13762:1 13763:1 13764:1 13765:1 13766:1 13767:1 13768:1 13769:1 13770:1 13771:1 13772:1 13773:1 13774:1 13775:1 13776:1 13777:1 13778:1 13779:1 13780:1 13781:1 13782:1 13783:1 13784:1 13785:1 13786:1 13787:3 13788:2 13789:1 13790:1 13791:1 13792:1 13793:1 13794:1 13795:1 13796:1 13797:1 13798:1 13799:1 13800:1 13801:1 13802:1 13803:1 13804:1 13805:1 13806:1 13807:1 13808:1 13809:1 13810:1 13811:1 13812:1 13813:1 13814:1 13815:1 13816:1 13817:1 13818:1 13819:1 13820:1 13821:1 13822:1 13823:1 13824:1 13825:1 13826:1 13827:1 13828:1 13829:1 13830:1 13831:1 13832:1 13833:1 13834:1 13835:2 13836:1 13837:1 13838:2 13839:1 13840:1 13841:1 13842:1 13843:1 13844:1 13845:1 13846:1 13847:1 13848:1 13849:1 13850:1 13851:1 13852:1 13853:1 13854:1 13855:1 13856:1 13857:1 13858:2 13859:1 13860:2 13861:1 13862:1 13863:1 13864:1 13865:1 13866:1 13867:1 13868:1 13869:1 13870:1 13871:1 13872:1 13873:1 13874:1 13875:1 13876:1 13877:4 13878:1 13879:1 13880:1 13881:1 13882:1 13883:1 13884:1 13885:1 13886:1 13887:1 13888:1 13889:1 13890:2 13891:1 13892:1 13893:1 13894:1 13895:1 13896:1 13897:1 13898:1 13899:1 13900:1 13901:1 13902:1 13903:1 13904:1 13905:2 13906:2 13907:2 13908:2 13909:1 13910:1 13911:1 13912:1 13913:1 13914:1 13915:1 13916:1 13917:1 13918:1 13919:1 13920:1 13921:1 13922:1 13923:1 13924:1 13925:1 13926:1 13927:1 13928:1 13929:1 13930:1 13931:1 13932:1 13933:1 13934:1 13935:1 13936:1 13937:1 13938:1 13939:1 13940:1 13941:1 13942:1 13943:1 13944:1 13945:1 13946:1 13947:1 13948:1 13949:1 13950:1 13951:1 13952:1 13953:1 13954:1 13955:1 13956:1 13957:1 13958:1 13959:1 13960:1 13961:1 13962:1 13963:1 13964:1 13965:1 13966:1 13967:1 13968:1 13969:1 13970:1 13971:1 13972:2 13973:1 13974:1 13975:1 13976:1 13977:1 13978:1 13979:1 13980:1 13981:1 13982:1 13983:1 13984:1 13985:1 13986:1 13987:1 13988:1 13989:1 13990:1 13991:1 13992:1 13993:1 13994:1 13995:1 13996:1 13997:1 13998:1 13999:1 14000:1 14001:1 14002:1 14003:1 14004:1 14005:1 14006:1 14007:1 14008:1 14009:1 14010:1 14011:1 14012:1 14013:1 14014:1 14015:1 14016:1 14017:1 14018:1 14019:1 14020:1 14021:1 14022:1 14023:1 14024:1 14025:1 14026:1 14027:1 14028:1 14029:1 14030:1 14031:1 14032:1 14033:2 14034:2 14035:2 14036:2 14037:2 14038:1 14039:1 14040:1 14041:1 14042:1 14043:1 14044:1 14045:1 14046:1 14047:1 14048:1 14049:1 14050:1 14051:1 14052:1 14053:1 14054:1 14055:1 106497:1 106498:1 106739:1 106740:1 106741:1 106745:1 106751:1 106752:1 106753:1 106754:1 106755:1 106756:1 106761:1 106765:1 106841:1 107628:1 107904:1 108078:1 108235:2 108728:1 109126:1 109656:1 109789:1 109790:1 109791:1 109905:1 110353:1 110354:1 110355:1 110356:1 110357:1 110358:1 110359:1 110360:1 110361:1 110362:1 110363:1 110364:1 110365:1 110366:1 110367:1 110368:1 110369:1 110370:1 110371:1 110372:1 110373:1 110374:1 110375:1 110376:1 110377:1 110378:1 110379:2 110380:1 110381:1 110382:1 110383:1 110384:1 110385:1 110386:1 110387:1 110388:1 110389:1 110390:1 110391:1 110392:1 110393:1 110394:1 110395:1 110396:1 110397:1 110398:1 110399:1 110400:1 110401:1 110402:1 110403:1 110404:1 110405:1 110406:1 110407:1 110408:1 110409:1 110410:1 110411:1 110412:1 110413:1 110414:1 110415:1 110416:1 110417:1 110418:1 110419:1 110420:1 110421:1 110422:1 110423:1 110424:1 110425:1 110426:1 110427:1 110428:1 110429:1 110430:1 110431:1 110432:1 110433:1 110434:1 110435:1 110436:1 110437:1 110438:1 110439:1 110440:1 110441:1 110442:1 110443:1 110444:1 110445:1 110446:1 110447:1 110448:1 110449:1 110450:1 110451:1 110452:1 110453:1 110454:1 110455:1 110456:1 110457:1 110458:1 110459:1 110460:1 110461:1 110462:1 110463:1 110464:1 110465:1 110466:1 110467:1 110468:1 110469:1 110470:1 110471:1 110472:1 110473:1 110474:1 110475:1 110476:1 110477:1 110478:1 110479:1 110480:1 110481:1 110482:1 110483:1 110484:1 110485:1 110486:1 110487:1 110488:1 110489:1 110490:1 110491:1 110492:1 110493:1 110494:1 110495:1 110496:1 110497:1 110498:1 110499:1 110500:1 110501:1 110502:1 110503:1 110504:1 110505:1 110506:1 110507:1 110508:1 110509:1 110510:1 110511:2 110512:2 110513:3 110514:2 110515:2 110516:1 110517:1 110518:1 110519:1 110520:1 110521:1 110522:1 110523:1 110524:1 110525:1 110526:1 110527:1 110528:1 110529:1 110530:1 110531:1 110532:1 110533:1 110534:1 110535:1 110536:1 110537:1 110538:1 110539:1 110540:1 110541:1 110542:1 110543:1 110544:1 110545:1 110546:1 110547:1 110548:1 110549:1 110550:1 110551:1 110552:1 110553:1 110554:1 110555:1 110556:1 110557:1 110558:1 110559:1 110560:1 110561:1 110562:1 110563:1 110564:1 110565:1 110566:1 110567:1 110568:1 110569:1 110570:1 110571:1 110572:1 110573:1 110574:1 110575:1 110576:1 110577:1 110578:1 110579:1 110580:1 110581:1 110582:1 110583:1 110584:1 110585:1 110586:1 110587:1 110588:1 110589:1 110590:1 110591:1 110592:1 110593:1 110594:1 110595:1 110596:1 110597:1 110598:1 110599:1 110600:1 110601:1 110602:1 110603:1 110604:1 110605:1 110606:1 110607:1 110608:1 110609:1 110610:1 110611:1 110612:1 110613:1 110614:1 110615:1 110616:1 110617:1 110618:1 110619:1 110620:1 110621:1 110622:1 110623:1 110624:1 110625:1 110626:1 110627:1 110628:1 110629:1 110630:1 110631:1 110632:1 110633:1 110634:1 110635:1 110636:1 110637:1 110638:1 110639:1 110640:1 110641:1 110642:1 110643:1 110644:1 110645:1 110646:1 110647:1 110648:1 110649:1 110650:1 110651:1 110652:1 110653:2 110654:2 110655:2 110656:2 110657:1 110658:1 110659:1 110660:1 110661:1 110662:1 110663:1 110664:1 110665:1 110666:1 110667:1 110668:1 110669:1 110670:1 110671:1 110672:1 110673:1 110674:1 110675:1 110676:1 110677:1 110678:1 110679:1 110680:1 
1 1:448 3:15 9:3 11:1 71:1 82:2 83:1 84:1 85:1 86:1 87:1 88:1 1551:1 1558:1 1567:2 1585:1 1587:1 1600:1 1615:1 1617:1 1642:1 1655:1 1705:1 1707:1 1750:1 1783:1 1796:1 1836:1 1883:1 1983:1 2028:2 2038:1 2162:1 2194:1 2272:1 2286:1 2329:1 2413:1 2433:1 2457:2 2516:1 2517:1 2518:3 2519:3 2520:3 2521:1 2522:2 2523:1 2524:1 2525:2 2526:2 2527:2 2528:2 2529:3 2530:3 2531:1 2532:1 2533:1 2534:1 2535:1 2536:2 2537:2 2538:1 2539:1 2540:1 2541:2 2542:1 2543:1 2544:1 2545:1 2546:1 2547:1 10488:1 10490:1 10516:4 10570:2 10675:1 10678:1 11130:1 11217:1 11511:1 11512:1 11653:1 11654:1 11684:1 11688:1 11734:1 11973:1 12092:1 12104:1 12458:1 12463:1 13264:1 13345:1 13751:1 13971:1 14137:1 14295:1 14412:1 14811:1 15165:1 15238:1 15554:1 16043:1 16044:1 16045:1 16046:1 16047:1 16048:1 16049:3 16050:3 16051:1 16052:1 16053:1 16054:1 16055:1 16056:1 16057:1 16058:1 16059:1 16060:1 16061:1 16062:1 16063:1 16064:1 16065:1 16066:1 16067:1 16068:1 16069:2 16070:1 16071:1 16072:1 16073:1 16074:1 16075:1 16076:1 16077:1 16078:1 16079:1 16080:1 16081:1 16082:2 16083:1 16084:1 16085:3 16086:1 16087:1 16088:1 16089:1 16090:1 16091:1 16092:1 16093:1 16094:1 16095:1 16096:1 16097:1 16098:1 16099:1 16100:1 16101:1 16102:1 16103:1 16104:1 16105:1 16106:1 16107:1 16108:1 16109:1 16110:2 16111:1 16112:1 16113:1 16114:1 16115:1 16116:2 16117:2 16118:1 16119:1 16120:1 16121:1 16122:1 16123:1 16124:1 16125:1 16126:1 16127:1 16128:1 16129:1 16130:1 16131:1 16132:1 16133:1 16134:1 16135:1 16136:1 16137:1 16138:1 16139:1 16140:1 16141:1 16142:1 16143:1 16144:1 16145:1 16146:1 16147:1 16148:1 16149:1 16150:1 16151:1 16152:1 16153:1 16154:1 16155:1 16156:1 16157:1 16158:1 16159:1 16160:1 16161:1 16162:1 16163:1 16164:1 16165:1 16166:1 16167:1 16168:1 106842:3 107841:1 107880:1 108328:1 108727:1 109707:1 110336:1 110983:1 113179:1 113180:1 113181:1 113182:1 113183:1 113184:3 113185:1 113186:1 113187:1 113188:1 113189:1 113190:1 113191:1 113192:1 113193:1 113194:1 113195:1 113196:1 113197:1 113198:1 113199:1 113200:1 113201:1 113202:1 113203:1 113204:1 113205:1 113206:1 113207:1 113208:1 113209:1 113210:1 113211:1 113212:1 113213:1 113214:1 113215:1 113216:1 113217:1 113218:1 113219:1 113220:1 113221:1 113222:1 113223:1 113224:1 113225:1 113226:1 113227:1 113228:1 113229:1 113230:1 113231:1 113232:1 113233:1 113234:1 113235:1 113236:1 113237:1 113238:1 113239:1 113240:1 113241:1 113242:1 113243:1 113244:1 113245:1 113246:1 113247:1 113248:1 113249:1 113250:1 113251:1 113252:1 113253:1 113254:1 113255:1 113256:1 113257:1 113258:1 113259:1 113260:1 113261:2 113262:1 113263:1 113264:1 113265:1 113266:1 113267:1 113268:1 113269:1 113270:1 113271:1 113272:1 113273:1 113274:1 113275:1 113276:1 113277:1 113278:1 113279:1 113280:1 113281:1 113282:1 113283:1 113284:1 113285:1 113286:1 113287:1 113288:1 113289:1 113290:1 113291:1 113292:1 113293:1 113294:1 113295:1 113296:1 113297:1 113298:1 113299:1 113300:1 113301:1 113302:1 113303:1 113304:1 113305:1 113306:1 113307:1 113308:1 113309:1 113310:1 113311:1 113312:1 113313:1 113314:1 113315:1 113316:1 113317:1 113318:1 113319:1 113320:1 113321:1 113322:1 113323:1 113324:1 113325:1 
1 1:70 3:5 9:1 10:1 11:1 23:1 89:1 90:1 91:1 92:1 1551:1 1558:1 1655:1 1750:1 1875:1 2107:1 2111:1 2548:1 2549:1 2550:2 2551:1 2552:1 2553:1 2554:1 2555:1 2556:1 10751:1 11489:1 14650:1 14781:1 16169:1 16170:1 16171:1 16172:1 16173:1 16174:1 16175:1 16176:1 16177:1 16178:1 16179:1 16180:1 16181:1 16182:1 16183:1 16184:1 16185:1 16186:1 16187:1 16188:1 16189:1 16190:1 16191:1 16192:1 16193:1 113326:1 113327:1 113328:1 113329:1 113330:1 113331:1 113332:1 113333:1 113334:1 113335:1 113336:1 113337:1 113338:1 113339:1 113340:1 113341:1 113342:1 113343:1 113344:1 113345:1 113346:1 113347:1 113348:1 113349:1 113350:1 113351:1 113352:1 113353:1 
1 1:291 3:12 9:1 11:1 112:1 113:1 114:1 1556:1 1568:1 1575:1 1578:1 1587:2 1595:1 1596:1 1610:1 1618:1 1658:1 1673:1 1728:1 1729:2 1734:1 1801:2 1811:1 1814:1 1832:2 1883:2 1885:1 2008:1 2012:1 2021:1 2128:1 2174:1 2190:1 2237:1 2242:1 2268:1 2270:1 2278:1 2288:2 2444:1 2492:1 2593:2 2632:1 2657:1 2751:1 2753:2 2766:2 2842:1 2868:1 2869:2 2870:2 2871:1 2872:1 2873:1 2874:1 2875:1 2876:1 2877:1 2878:1 2879:1 2880:1 2881:1 2882:2 2883:2 10367:1 10393:1 10472:1 10490:1 12016:1 12787:1 14244:1 14285:1 14432:1 15332:1 17773:1 18318:1 18319:2 18320:1 18321:2 18322:1 18323:1 18324:1 18325:1 18326:1 18327:1 18328:1 18329:1 18330:1 18331:1 18332:1 18333:1 18334:1 18335:1 18336:1 18337:1 18338:1 18339:1 18340:1 18341:1 18342:1 18343:1 18344:1 18345:1 18346:1 18347:1 18348:1 18349:1 18350:1 18351:1 18352:1 18353:1 18354:1 18355:1 18356:1 18357:1 18358:1 18359:1 18360:1 18361:1 18362:1 18363:1 18364:1 18365:2 18366:1 18367:1 18368:1 18369:2 18370:2 18371:1 18372:1 18373:1 18374:1 18375:1 18376:1 18377:1 18378:1 18379:1 18380:1 18381:1 18382:1 18383:1 18384:1 18385:1 18386:1 18387:1 18388:1 18389:1 18390:1 18391:1 18392:1 18393:1 18394:1 18395:1 18396:1 18397:1 18398:1 18399:1 18400:1 18401:1 18402:1 18403:1 18404:1 18405:1 116165:1 116166:1 116167:1 116168:1 116169:1 116170:1 116171:1 116172:1 116173:1 116174:1 116175:1 116176:1 116177:1 116178:1 116179:1 116180:1 116181:1 116182:1 116183:1 116184:1 116185:1 116186:1 116187:1 116188:1 116189:1 116190:1 116191:1 116192:1 116193:1 116194:1 116195:1 116196:1 116197:1 116198:1 116199:1 116200:1 116201:1 116202:1 116203:1 116204:1 116205:1 116206:1 116207:1 116208:2 116209:1 116210:1 116211:1 116212:1 116213:1 116214:1 116215:1 116216:1 116217:1 116218:1 116219:1 116220:1 116221:1 116222:1 116223:1 116224:1 116225:1 116226:1 116227:1 116228:1 116229:1 116230:1 116231:1 116232:1 116233:1 116234:1 116235:1 116236:1 116237:1 116238:1 
1 1:773 3:6 9:1 11:1 115:1 116:1 117:1 118:1 1562:2 1566:3 1567:1 1570:3 1571:1 1578:2 1580:1 1585:1 1587:2 1592:2 1593:2 1594:2 1597:1 1599:2 1600:4 1601:1 1612:3 1615:6 1618:1 1623:1 1632:1 1642:1 1644:1 1655:1 1659:2 1673:2 1694:3 1705:6 1714:2 1719:1 1746:2 1783:1 1791:1 1812:1 1827:1 1836:1 1871:1 1904:1 1915:2 1994:2 2010:1 2022:1 2115:1 2397:1 2403:1 2491:1 2592:2 2669:1 2697:1 2884:1 2885:1 2886:1 2887:14 2888:1 2889:1 2890:1 2891:1 2892:6 2893:2 2894:1 2895:1 2896:2 2897:1 2898:2 2899:1 2900:1 2901:1 2902:1 2903:1 2904:1 2905:1 10418:1 10426:2 10434:2 10435:2 10445:2 10470:1 10489:1 10490:1 10570:1 10581:1 10585:1 10793:1 10877:1 10925:2 10968:1 11013:1 11040:1 11041:1 11042:1 11080:1 11088:2 11121:1 11138:1 11211:1 11212:1 11213:1 11217:1 11331:1 11359:5 11412:1 11511:1 11512:3 11593:1 11609:2 11613:1 11614:1 11643:1 11684:1 11689:1 11703:3 11747:1 11924:1 11944:1 11973:1 12087:2 12092:1 12093:1 12126:1 12210:1 12264:1 12308:1 12341:1 12451:1 12454:1 12463:1 12464:1 12631:1 12632:1 12674:1 12682:1 12708:1 12713:1 12714:3 12794:1 12804:1 12817:1 12911:1 12971:4 13111:1 13161:1 13268:1 13513:1 13564:1 13856:1 13933:1 13934:1 13942:1 14136:1 14177:1 14275:2 14466:1 14505:1 14506:2 14554:2 14730:1 14785:1 14830:1 14899:1 15087:1 15160:1 15162:2 15757:1 15818:1 15914:1 15933:1 15987:2 16128:1 16136:1 16413:1 16414:1 16578:1 16604:2 16739:1 16772:1 16895:1 17050:1 17051:1 17055:1 17135:1 17258:1 17471:1 17724:2 17954:1 17965:1 17979:1 18406:1 18407:1 18408:1 18409:1 18410:1 18411:1 18412:1 18413:1 18414:1 18415:1 18416:1 18417:1 18418:1 18419:1 18420:1 18421:1 18422:1 18423:1 18424:1 18425:1 18426:1 18427:1 18428:1 18429:1 18430:1 18431:1 18432:1 18433:1 18434:1 18435:1 18436:1 18437:1 18438:1 18439:1 18440:1 18441:1 18442:1 18443:2 18444:3 18445:1 18446:1 18447:1 18448:1 18449:1 18450:1 18451:1 18452:1 18453:1 18454:1 18455:2 18456:1 18457:1 18458:2 18459:1 18460:2 18461:2 18462:1 18463:1 18464:1 18465:1 18466:1 18467:1 18468:1 18469:1 18470:1 18471:1 18472:1 18473:1 18474:1 18475:1 18476:1 18477:1 18478:1 18479:1 18480:1 18481:1 18482:1 18483:1 18484:1 18485:2 18486:1 18487:1 18488:1 18489:2 18490:2 18491:1 18492:1 18493:1 18494:1 18495:1 18496:1 18497:1 18498:2 18499:1 18500:1 18501:1 18502:1 18503:1 18504:1 18505:2 18506:1 18507:1 18508:1 18509:2 18510:1 18511:1 18512:1 18513:1 18514:1 18515:1 18516:1 18517:1 18518:1 18519:1 18520:1 18521:1 18522:1 18523:1 18524:1 18525:1 18526:1 18527:3 18528:1 18529:1 18530:1 18531:1 18532:1 18533:1 18534:1 18535:1 18536:1 18537:1 18538:1 18539:1 18540:1 18541:1 18542:1 18543:1 18544:1 18545:1 18546:1 18547:1 18548:1 18549:1 18550:1 18551:1 18552:1 18553:1 18554:1 18555:1 18556:1 18557:1 18558:1 18559:1 18560:1 18561:1 18562:1 18563:1 18564:1 18565:2 18566:1 18567:1 18568:1 18569:1 18570:1 18571:1 18572:1 18573:1 18574:1 18575:1 18576:2 18577:1 18578:1 18579:1 18580:1 18581:1 18582:1 18583:1 18584:1 18585:1 18586:1 18587:1 18588:1 18589:1 18590:1 18591:1 18592:1 18593:1 18594:1 18595:1 18596:1 18597:1 106487:2 107119:1 107120:1 107212:1 107324:1 107325:1 107683:1 107800:1 108328:1 108755:1 108766:1 108969:1 109020:1 109071:1 109975:1 110547:1 111256:1 111543:1 111751:1 111998:1 112079:1 112083:1 112573:1 112869:1 112870:1 113004:1 113030:1 113106:1 113278:1 113639:1 114066:1 114847:1 114885:1 114992:1 115094:1 115216:1 115719:1 116239:1 116240:1 116241:1 116242:1 116243:1 116244:1 116245:1 116246:1 116247:1 116248:1 116249:1 116250:1 116251:1 116252:1 116253:1 116254:1 116255:1 116256:1 116257:1 116258:1 116259:1 116260:1 116261:1 116262:1 116263:1 116264:1 116265:1 116266:1 116267:1 116268:1 116269:1 116270:1 116271:1 116272:1 116273:1 116274:1 116275:1 116276:1 116277:1 116278:1 116279:1 116280:1 116281:1 116282:1 116283:1 116284:1 116285:1 116286:1 116287:1 116288:1 116289:1 116290:1 116291:1 116292:1 116293:1 116294:1 116295:1 116296:1 116297:1 116298:1 116299:1 116300:1 116301:1 116302:1 116303:1 116304:1 116305:1 116306:2 116307:1 116308:1 116309:1 116310:1 116311:1 116312:1 116313:1 116314:1 116315:1 116316:1 116317:1 116318:1 116319:1 116320:2 116321:1 116322:1 116323:1 116324:1 116325:1 116326:1 116327:1 116328:1 116329:1 116330:1 116331:1 116332:1 116333:1 116334:1 116335:1 116336:1 116337:1 116338:1 116339:1 116340:2 116341:1 116342:1 116343:1 116344:1 116345:1 116346:1 116347:1 116348:1 116349:1 116350:1 116351:1 116352:1 116353:1 116354:1 116355:2 116356:2 116357:1 116358:1 116359:1 116360:1 116361:1 116362:1 116363:1 116364:1 116365:1 116366:1 116367:1 116368:1 116369:1 116370:1 116371:1 116372:1 116373:1 116374:1 116375:1 116376:1 116377:1 116378:1 116379:1 116380:1 116381:1 116382:1 116383:1 116384:1 116385:1 116386:1 116387:1 116388:1 116389:1 116390:1 116391:1 116392:1 116393:1 116394:1 116395:1 116396:1 116397:1 116398:1 116399:1 116400:1 116401:1 116402:1 116403:1 116404:1 116405:1 116406:1 116407:1 116408:1 116409:1 116410:1 116411:1 116412:1 116413:1 116414:1 116415:2 116416:1 116417:1 116418:1 116419:1 116420:1 116421:1 116422:1 116423:1 116424:1 116425:1 116426:1 116427:1 116428:1 116429:1 116430:1 116431:1 116432:1 116433:1 116434:1 116435:1 116436:1 116437:1 116438:1 116439:1 116440:1 116441:1 116442:1 116443:1 116444:1 116445:1 116446:1 116447:1 116448:1 116449:1 116450:1 116451:1 116452:1 116453:1 116454:1 116455:1 116456:1 116457:1 116458:1 116459:1 116460:1 116461:1 116462:1 116463:1 116464:1 116465:1 116466:1 116467:1 116468:1 116469:1 116470:1 116471:1 116472:1 116473:1 116474:1 116475:2 116476:1 116477:1 116478:1 116479:1 116480:1 116481:1 116482:1 116483:1 116484:1 116485:1 116486:1 116487:1 116488:1 116489:1 116490:1 116491:1 116492:1 116493:1 116494:1 116495:1 116496:1 116497:1 116498:1 116499:1 116500:1 116501:1 116502:1 116503:1 116504:1 116505:1 116506:1 116507:1 116508:1 116509:1 116510:1 116511:1 116512:1 116513:1 116514:1 116515:1 116516:1 116517:1 116518:1 116519:1 116520:1 116521:1 116522:1 
1 1:424 3:5 9:1 11:1 131:1 132:1 133:1 134:1 1566:2 1567:1 1577:3 1587:1 1596:1 1597:1 1600:3 1612:1 1615:5 1642:2 1655:3 1693:1 1705:3 1746:1 1750:1 1789:2 1819:1 1836:1 1842:2 1931:1 2043:1 2086:2 2138:1 2194:1 2228:1 2277:1 2286:1 2290:1 2445:1 2454:1 2626:1 2645:2 2890:1 3023:1 3024:1 3025:4 3026:1 3027:1 3028:2 3029:1 3030:1 3031:1 3032:1 10398:1 10399:6 10434:1 10436:1 10488:1 10498:1 10675:1 10744:4 10758:1 10877:1 10900:1 11040:4 11041:2 11042:2 11217:2 11348:1 11392:1 11492:1 11609:2 11613:1 11628:1 11666:1 11804:1 11842:1 11957:1 11972:1 11973:1 12032:1 12247:1 12271:1 12307:2 12308:2 12313:1 12314:1 12315:1 12463:1 12553:1 12681:1 12911:1 13039:1 13080:1 13081:1 13558:1 13625:1 13657:1 13877:1 14073:1 14138:1 14278:1 14412:1 14465:1 14729:1 15692:1 15854:1 15935:2 15971:1 16119:1 16279:1 16540:1 16769:1 16772:1 17046:1 17601:1 19413:1 19414:1 19415:1 19416:5 19417:3 19418:1 19419:1 19420:1 19421:1 19422:1 19423:1 19424:1 19425:1 19426:1 19427:1 19428:1 19429:1 19430:1 19431:1 19432:1 19433:1 19434:1 19435:1 19436:1 19437:1 19438:1 19439:1 19440:3 19441:1 19442:1 19443:1 19444:1 19445:1 19446:1 19447:1 19448:1 19449:1 19450:1 19451:1 19452:1 19453:1 19454:2 19455:1 19456:1 19457:1 19458:1 19459:1 19460:1 19461:1 19462:1 19463:1 19464:1 19465:2 19466:1 19467:1 19468:1 19469:2 19470:1 19471:1 19472:1 19473:1 19474:1 19475:1 19476:1 19477:1 19478:1 19479:1 19480:1 19481:1 19482:1 19483:1 19484:1 19485:1 19486:2 19487:1 19488:1 19489:1 19490:1 19491:1 19492:1 19493:1 19494:1 19495:1 19496:1 19497:1 19498:1 19499:1 19500:1 19501:1 19502:1 19503:1 19504:1 19505:1 19506:1 19507:1 19508:1 19509:1 19510:1 19511:1 19512:2 19513:1 19514:1 19515:1 19516:1 19517:1 19518:1 19519:1 19520:1 19521:1 19522:1 19523:1 19524:1 19525:1 19526:1 106450:1 107119:2 107120:2 108043:1 108181:1 108182:1 108183:1 108199:1 108200:1 108541:1 108587:2 108593:1 108594:1 108766:1 109484:1 110513:1 111542:1 112932:1 113264:1 116338:1 117611:1 117612:1 117613:1 117614:1 117615:4 117616:1 117617:1 117618:1 117619:1 117620:1 117621:1 117622:1 117623:1 117624:1 117625:1 117626:1 117627:1 117628:1 117629:1 117630:1 117631:1 117632:1 117633:1 117634:1 117635:1 117636:1 117637:1 117638:1 117639:1 117640:1 117641:1 117642:1 117643:1 117644:1 117645:1 117646:1 117647:1 117648:1 117649:1 117650:1 117651:1 117652:1 117653:1 117654:1 117655:1 117656:1 117657:1 117658:1 117659:1 117660:1 117661:1 117662:1 117663:1 117664:1 117665:1 117666:1 117667:2 117668:1 117669:1 117670:1 117671:1 117672:1 117673:1 117674:1 117675:1 117676:1 117677:1 117678:1 117679:1 117680:1 117681:1 117682:1 117683:1 117684:1 117685:2 117686:2 117687:2 117688:1 117689:1 117690:1 117691:1 117692:1 117693:1 117694:1 117695:1 117696:1 117697:1 117698:1 117699:1 117700:1 117701:1 117702:1 117703:1 117704:1 117705:1 117706:1 117707:1 117708:1 117709:1 117710:1 117711:1 117712:1 117713:1 117714:1 117715:1 117716:1 117717:1 117718:1 117719:1 117720:1 117721:1 117722:1 117723:1 117724:1 117725:1 117726:1 117727:1 117728:1 117729:1 117730:1 117731:1 117732:1 117733:1 117734:1 117735:1 117736:1 117737:1 117738:1 117739:1 117740:1 117741:1 117742:1 117743:1 117744:1 117745:1 117746:1 117747:1 117748:1 117749:1 117750:1 117751:1 117752:1 117753:1 117754:1 117755:1 117756:1 117757:1 117758:1 117759:1 117760:1 117761:1 117762:1 117763:1 117764:1 117765:1 117766:1 117767:1 117768:1 117769:1 117770:1 117771:1 117772:1 117773:1 117774:1 117775:1 117776:1 117777:1 117778:1 
1 1:414 2:1 3:6 9:1 11:1 39:2 135:1 136:1 137:1 138:1 139:1 1551:1 1585:1 1595:1 1597:1 1600:1 1613:1 1615:2 1623:1 1644:1 1705:2 1728:3 1734:3 1750:1 1819:3 1827:1 1856:1 1994:1 2034:5 2050:1 2177:1 2194:1 2247:1 2397:1 2600:1 2726:1 2943:1 2969:2 2973:4 3006:1 3033:4 3034:1 3035:1 10356:1 10434:1 10435:1 10450:2 10494:1 10497:1 10523:1 10540:1 10541:1 10693:1 10694:1 10695:4 10696:1 10699:1 10700:1 10703:1 10704:1 10705:1 10706:1 10707:1 10708:1 10711:1 10712:1 10715:1 10716:1 10877:1 10968:1 11134:1 11217:2 11460:1 11467:1 11496:1 11558:1 11672:1 11686:1 11687:1 12122:2 12126:1 12188:1 12463:1 12575:1 12714:1 12730:1 12734:1 12735:1 12736:1 12737:1 12833:1 12869:1 13220:1 14087:1 14088:1 15094:1 15386:1 15399:1 16375:1 17110:1 17669:1 17979:1 18292:1 19527:1 19528:1 19529:4 19530:1 19531:1 19532:2 19533:1 19534:1 19535:1 19536:1 19537:1 19538:1 19539:1 19540:1 19541:1 19542:1 19543:1 19544:1 19545:1 19546:1 19547:1 19548:1 19549:1 19550:1 19551:1 19552:1 19553:1 19554:1 19555:1 19556:1 19557:1 19558:1 19559:1 19560:1 19561:1 19562:1 19563:1 19564:1 19565:1 19566:1 19567:1 19568:1 19569:1 19570:1 19571:1 19572:1 19573:1 19574:1 19575:1 19576:1 19577:1 19578:1 19579:1 19580:1 19581:1 19582:2 19583:1 19584:1 19585:1 19586:1 19587:1 19588:1 19589:1 19590:1 19591:1 19592:1 19593:1 19594:1 19595:1 19596:1 19597:1 19598:1 19599:1 19600:1 19601:1 19602:1 106487:1 106591:1 106739:1 106740:1 106741:1 106745:1 106746:1 106750:1 106751:1 106752:1 106753:1 106754:1 106755:1 106756:1 106761:1 106765:1 107628:1 107878:1 108366:1 108765:1 108766:1 109072:1 109094:1 109095:1 109096:1 109656:1 110717:1 110912:1 111997:1 117779:1 117780:1 117781:1 117782:1 117783:1 117784:1 117785:1 117786:1 117787:1 117788:1 117789:1 117790:1 117791:1 117792:1 117793:1 117794:1 117795:1 117796:1 117797:1 117798:1 117799:1 117800:1 117801:1 117802:1 117803:1 117804:1 117805:1 117806:1 117807:1 117808:1 117809:1 117810:1 117811:1 117812:1 117813:1 117814:1 117815:1 117816:1 117817:1 117818:1 117819:1 117820:1 117821:1 117822:1 117823:1 117824:1 117825:1 117826:1 117827:1 117828:1 117829:1 117830:1 117831:1 117832:1 117833:1 117834:1 117835:1 117836:1 117837:1 117838:1 117839:1 117840:1 117841:1 117842:1 117843:1 117844:1 117845:1 117846:1 117847:1 117848:1 117849:1 117850:1 117851:1 117852:1 117853:1 117854:1 117855:1 117856:1 117857:1 117858:1 117859:1 117860:1 117861:1 117862:1 117863:1 117864:1 117865:1 117866:1 117867:1 117868:1 117869:1 117870:1 117871:1 117872:1 117873:1 117874:1 117875:1 117876:1 117877:1 117878:1 117879:1 117880:1 117881:1 
1 1:898 3:21 9:1 11:1 33:1 140:1 141:1 142:1 143:1 144:1 145:1 146:1 1547:1 1551:1 1562:1 1567:1 1571:1 1578:2 1582:1 1584:9 1587:1 1595:1 1600:2 1612:1 1615:10 1623:3 1644:1 1655:2 1675:1 1693:1 1705:1 1717:1 1728:1 1734:1 1790:1 1814:1 1819:2 1826:1 1839:1 1873:1 1874:1 1876:1 1879:1 1903:3 1921:1 1950:1 1979:1 1995:2 2012:3 2132:1 2138:2 2165:1 2172:1 2197:1 2310:1 2329:1 2402:1 2420:1 2450:1 2461:1 2472:1 2535:2 2566:1 2593:4 2610:1 2766:1 2776:2 2836:1 2946:1 2977:9 3029:1 3036:2 3037:8 3038:9 3039:7 3040:1 3041:1 3042:1 3043:1 3044:1 3045:4 3046:2 3047:1 3048:1 3049:1 3050:3 3051:1 3052:1 3053:1 3054:2 3055:3 3056:1 3057:1 3058:1 3059:1 3060:1 3061:1 3062:1 3063:6 3064:1 3065:2 3066:2 3067:1 3068:1 3069:1 3070:1 3071:1 3072:1 3073:1 10381:1 10426:1 10450:1 10467:1 10490:2 10494:1 10503:1 10504:1 10536:1 10553:1 10675:2 10676:1 10677:1 10744:1 10768:1 10780:1 10868:2 10869:2 10925:4 10968:2 11040:1 11085:1 11091:1 11096:1 11121:1 11138:1 11172:1 11173:1 11218:1 11236:1 11359:1 11460:1 11495:1 11496:1 11511:1 11512:2 11803:1 11805:2 11806:1 11858:1 11859:1 11872:1 11942:1 11957:1 11994:1 12062:1 12124:1 12126:1 12135:1 12235:1 12327:1 12407:1 12551:1 12696:2 12750:1 12923:1 13174:1 13345:1 13422:1 13461:2 13490:1 13544:1 13633:1 13668:2 13698:1 13699:1 13726:1 13772:1 13844:1 13877:1 13926:1 13942:1 13944:1 14184:1 14237:1 14266:1 14502:1 14550:1 14561:2 14574:1 14647:1 15087:1 15426:1 15495:1 15749:1 15850:1 15875:1 16005:1 16006:1 16104:2 16119:1 16220:1 16649:1 16775:1 16993:1 17571:2 17780:1 17850:1 17963:1 18176:1 18520:1 18592:1 19046:1 19465:1 19591:1 19603:2 19604:2 19605:1 19606:4 19607:8 19608:9 19609:8 19610:8 19611:8 19612:7 19613:1 19614:1 19615:1 19616:1 19617:2 19618:1 19619:1 19620:1 19621:1 19622:1 19623:1 19624:2 19625:1 19626:1 19627:1 19628:4 19629:1 19630:1 19631:1 19632:1 19633:1 19634:1 19635:1 19636:1 19637:1 19638:1 19639:1 19640:1 19641:1 19642:1 19643:1 19644:1 19645:1 19646:1 19647:1 19648:1 19649:1 19650:1 19651:1 19652:1 19653:1 19654:1 19655:1 19656:1 19657:1 19658:1 19659:1 19660:1 19661:2 19662:1 19663:1 19664:1 19665:3 19666:1 19667:1 19668:1 19669:1 19670:1 19671:1 19672:1 19673:1 19674:1 19675:1 19676:1 19677:1 19678:1 19679:1 19680:1 19681:1 19682:1 19683:1 19684:1 19685:1 19686:1 19687:1 19688:1 19689:1 19690:1 19691:1 19692:1 19693:1 19694:1 19695:1 19696:1 19697:1 19698:1 19699:1 19700:1 19701:1 19702:1 19703:1 19704:1 19705:1 19706:1 19707:1 19708:1 19709:1 19710:1 19711:1 19712:1 19713:1 19714:1 19715:1 19716:1 19717:1 19718:1 19719:3 19720:1 19721:1 19722:1 19723:1 19724:1 19725:2 19726:1 19727:2 19728:1 19729:1 19730:1 19731:2 19732:1 19733:1 19734:1 19735:1 19736:1 19737:1 19738:1 19739:1 19740:1 19741:1 19742:1 19743:1 19744:1 19745:1 19746:1 19747:1 19748:1 19749:1 19750:1 19751:1 19752:1 19753:1 19754:1 19755:1 19756:1 19757:1 19758:1 19759:1 19760:1 19761:1 19762:1 19763:1 19764:1 19765:1 19766:1 19767:1 19768:1 19769:1 19770:1 19771:1 19772:1 19773:1 19774:1 19775:1 19776:1 19777:1 19778:1 19779:1 19780:1 19781:1 19782:1 19783:1 19784:1 19785:1 19786:1 19787:1 19788:1 19789:1 19790:1 19791:1 19792:1 19793:1 19794:1 19795:1 19796:1 19797:1 19798:1 19799:1 19800:1 19801:1 19802:1 19803:1 19804:1 19805:1 19806:1 19807:1 19808:1 19809:1 19810:1 106555:1 106721:1 106926:2 107212:1 107277:1 107501:1 107664:1 107684:2 107694:1 107998:1 107999:1 108002:1 108062:1 108078:1 108366:1 108428:1 109598:1 109991:1 110272:1 111970:1 113130:1 113131:1 113264:1 115615:1 117122:1 117882:2 117883:1 117884:1 117885:1 117886:4 117887:8 117888:8 117889:8 117890:8 117891:7 117892:1 117893:1 117894:1 117895:1 117896:1 117897:1 117898:1 117899:1 117900:1 117901:1 117902:1 117903:1 117904:1 117905:1 117906:1 117907:1 117908:1 117909:1 117910:1 117911:1 117912:1 117913:1 117914:1 117915:4 117916:1 117917:1 117918:1 117919:1 117920:1 117921:1 117922:1 117923:1 117924:1 117925:1 117926:1 117927:1 117928:1 117929:1 117930:1 117931:1 117932:1 117933:1 117934:1 117935:1 117936:1 117937:1 117938:1 117939:1 117940:1 117941:1 117942:1 117943:1 117944:1 117945:1 117946:1 117947:1 117948:1 117949:1 117950:1 117951:1 117952:1 117953:1 117954:1 117955:1 117956:1 117957:1 117958:1 117959:1 117960:1 117961:1 117962:1 117963:2 117964:2 117965:1 117966:1 117967:1 117968:1 117969:3 117970:1 117971:1 117972:1 117973:1 117974:1 117975:1 117976:1 117977:2 117978:1 117979:1 117980:1 117981:1 117982:1 117983:1 117984:1 117985:1 117986:1 117987:1 117988:1 117989:1 117990:1 117991:1 117992:1 117993:1 117994:1 117995:1 117996:1 117997:1 117998:1 117999:1 118000:1 118001:1 118002:1 118003:1 118004:1 118005:1 118006:1 118007:1 118008:1 118009:1 118010:1 118011:1 118012:1 118013:1 118014:1 118015:1 118016:1 118017:1 118018:1 118019:1 118020:1 118021:1 118022:1 118023:1 118024:1 118025:1 118026:1 118027:1 118028:1 118029:1 118030:1 118031:1 118032:1 118033:1 118034:1 118035:1 118036:1 118037:1 118038:1 118039:1 118040:1 118041:1 118042:1 118043:1 118044:1 118045:1 118046:1 118047:1 118048:1 118049:1 118050:1 118051:1 118052:1 118053:1 118054:1 118055:1 118056:1 118057:1 118058:1 118059:1 118060:1 118061:1 118062:1 118063:1 118064:1 118065:1 118066:1 118067:1 118068:1 118069:1 118070:1 118071:1 118072:1 118073:1 118074:1 118075:1 118076:1 118077:1 118078:1 118079:1 118080:1 118081:1 118082:1 118083:1 118084:1 118085:1 118086:1 118087:1 118088:1 118089:1 118090:1 118091:1 118092:1 118093:1 118094:1 118095:1 118096:1 118097:1 118098:1 118099:1 118100:1 118101:1 118102:1 118103:1 118104:1 118105:1 118106:1 118107:1 118108:1 118109:1 118110:1 118111:1 118112:1 118113:1 118114:1 118115:1 118116:1 118117:1 118118:1 118119:1 118120:1 118121:1 118122:1 118123:1 118124:1 118125:1 118126:1 118127:1 118128:1 118129:1 118130:1 118131:1 118132:1 118133:1 118134:1 118135:1 118136:1 118137:1 118138:1 118139:1 118140:1 118141:1 118142:1 118143:1 118144:1 118145:1 118146:1 118147:1 118148:1 118149:1 118150:1 118151:1 118152:1 118153:1 118154:1 118155:1 118156:1 118157:1 118158:1 118159:1 118160:1 118161:1 118162:1 118163:1 118164:1 118165:1 118166:1 118167:1 118168:1 118169:1 118170:1 
1 1:698 3:29 9:1 11:1 149:1 150:1 151:1 152:1 153:2 154:1 1551:1 1556:1 1559:1 1566:2 1569:1 1577:2 1584:1 1585:5 1600:2 1611:1 1612:1 1615:8 1620:1 1623:2 1642:1 1655:2 1657:2 1658:1 1690:1 1691:1 1701:2 1705:6 1713:1 1763:1 1781:1 1793:2 1815:1 1817:1 1819:1 1832:1 1836:1 1846:2 1849:1 1856:1 1871:1 1875:2 1877:2 1903:1 1966:1 1987:1 1995:1 2021:1 2153:1 2219:1 2228:2 2238:2 2298:1 2439:1 2592:1 2620:1 2680:1 2715:2 2722:1 2755:1 2761:2 2779:1 2781:2 2806:1 2903:1 2967:1 3062:1 3113:1 3114:1 3115:1 3116:2 3117:1 3118:1 3119:1 3120:4 3121:1 3122:1 3123:1 3124:1 3125:1 3126:2 3127:2 3128:1 3129:1 3130:2 3131:1 3132:1 3133:1 3134:1 3135:1 3136:1 3137:1 3138:1 3139:1 3140:1 3141:1 3142:1 3143:1 3144:2 3145:1 3146:1 3147:1 3148:1 3149:1 3150:1 3151:1 3152:1 3153:1 3154:1 3155:1 10419:1 10490:1 10527:2 10528:1 10780:1 10793:1 10917:1 10924:1 10925:1 11003:2 11005:1 11015:1 11040:1 11041:1 11062:1 11080:1 11089:1 11090:1 11138:2 11192:1 11245:2 11303:1 11319:1 11329:1 11412:1 11511:1 11516:1 11609:1 11616:1 11645:1 11717:1 11804:1 11816:1 11905:1 11935:1 11969:2 12047:1 12048:1 12135:1 12260:1 12261:1 12438:2 12445:1 12474:1 12475:1 12553:1 12942:1 13388:1 13639:1 13667:1 13877:2 13878:1 14008:1 14237:1 14291:1 14316:2 14334:1 14553:1 14649:1 14911:1 14958:1 15165:1 15444:1 15708:1 15938:1 15960:1 16385:1 16413:1 16870:1 18362:1 19165:1 19482:1 19595:1 19715:1 19840:1 20143:1 20144:1 20145:1 20146:1 20147:1 20148:1 20149:1 20150:1 20151:1 20152:1 20153:1 20154:1 20155:1 20156:1 20157:2 20158:1 20159:1 20160:1 20161:1 20162:1 20163:1 20164:1 20165:1 20166:1 20167:1 20168:1 20169:1 20170:1 20171:1 20172:1 20173:1 20174:1 20175:1 20176:1 20177:1 20178:1 20179:1 20180:1 20181:1 20182:1 20183:1 20184:1 20185:1 20186:1 20187:1 20188:1 20189:1 20190:1 20191:1 20192:1 20193:1 20194:1 20195:1 20196:1 20197:1 20198:1 20199:1 20200:1 20201:1 20202:1 20203:1 20204:1 20205:1 20206:1 20207:1 20208:1 20209:1 20210:1 20211:1 20212:1 20213:1 20214:1 20215:1 20216:1 20217:1 20218:1 20219:1 20220:1 20221:1 20222:1 20223:1 20224:1 20225:1 20226:1 20227:1 20228:1 20229:1 20230:1 20231:1 20232:1 20233:1 20234:1 20235:1 20236:1 20237:1 20238:1 20239:1 20240:1 20241:1 20242:1 20243:1 20244:1 20245:1 20246:1 20247:1 20248:1 20249:1 20250:1 20251:1 20252:1 20253:1 20254:1 20255:1 20256:1 20257:1 20258:1 20259:1 20260:1 20261:1 20262:1 20263:1 20264:1 20265:1 20266:1 20267:2 20268:1 20269:1 20270:1 20271:1 20272:1 20273:1 20274:1 20275:1 20276:1 20277:1 20278:1 20279:1 20280:1 20281:1 20282:1 20283:1 20284:1 20285:1 20286:1 20287:1 20288:1 20289:1 20290:1 20291:1 20292:1 20293:1 20294:1 20295:1 20296:1 20297:1 20298:1 20299:1 20300:1 20301:1 20302:1 20303:1 20304:1 20305:1 20306:1 20307:1 20308:2 20309:1 20310:1 20311:1 20312:1 20313:1 20314:1 20315:1 20316:1 20317:1 20318:1 20319:1 20320:1 20321:1 20322:1 20323:1 20324:1 20325:1 20326:1 20327:1 20328:1 20329:1 20330:1 20331:1 20332:1 20333:1 20334:1 20335:1 20336:1 20337:1 20338:1 20339:1 20340:1 20341:1 20342:1 20343:1 20344:1 20345:1 20346:1 20347:1 20348:1 20349:1 20350:1 20351:1 20352:1 20353:1 20354:1 20355:1 20356:1 20357:1 20358:1 20359:1 20360:1 20361:1 106578:1 107175:1 107452:1 107831:1 108150:1 108195:1 108616:1 108780:1 110196:1 110482:1 111030:1 111317:1 111436:1 111820:1 113948:1 116723:1 118621:1 118622:1 118623:1 118624:1 118625:1 118626:1 118627:1 118628:1 118629:1 118630:1 118631:1 118632:1 118633:1 118634:1 118635:1 118636:1 118637:1 118638:1 118639:1 118640:1 118641:1 118642:1 118643:1 118644:1 118645:1 118646:1 118647:1 118648:1 118649:1 118650:1 118651:1 118652:1 118653:1 118654:1 118655:1 118656:1 118657:1 118658:1 118659:1 118660:1 118661:1 118662:1 118663:1 118664:1 118665:1 118666:1 118667:1 118668:1 118669:1 118670:1 118671:1 118672:1 118673:1 118674:1 118675:1 118676:1 118677:1 118678:1 118679:1 118680:1 118681:1 118682:1 118683:1 118684:1 118685:1 118686:1 118687:1 118688:1 118689:1 118690:1 118691:1 118692:1 118693:1 118694:1 118695:1 118696:1 118697:1 118698:1 118699:1 118700:1 118701:1 118702:1 118703:1 118704:1 118705:1 118706:1 118707:1 118708:1 118709:1 118710:1 118711:1 118712:1 118713:1 118714:1 118715:1 118716:1 118717:1 118718:1 118719:1 118720:1 118721:1 118722:1 118723:1 118724:1 118725:1 118726:1 118727:1 118728:1 118729:1 118730:1 118731:1 118732:1 118733:1 118734:1 118735:1 118736:1 118737:1 118738:1 118739:1 118740:1 118741:1 118742:1 118743:1 118744:1 118745:1 118746:1 118747:1 118748:1 118749:1 118750:1 118751:1 118752:1 118753:1 118754:1 118755:1 118756:1 118757:1 118758:1 118759:1 118760:1 118761:1 118762:1 118763:1 118764:1 118765:1 118766:1 118767:1 118768:1 118769:1 118770:1 118771:1 118772:1 118773:1 118774:1 118775:1 118776:1 118777:1 118778:1 118779:1 118780:1 118781:1 118782:1 118783:1 118784:1 118785:1 118786:1 118787:1 118788:1 118789:1 118790:1 118791:1 118792:1 118793:1 118794:1 118795:1 118796:1 118797:1 118798:1 118799:1 118800:1 118801:1 118802:1 118803:1 118804:1 118805:1 118806:1 118807:1 118808:1 118809:1 118810:1 118811:1 118812:1 118813:1 118814:1 118815:1 118816:1 118817:1 118818:1 118819:1 118820:1 118821:1 118822:1 118823:1 118824:1 118825:1 118826:1 118827:1 118828:1 118829:1 118830:1 118831:1 118832:1 118833:1 118834:1 118835:1 118836:1 118837:1 118838:1 118839:1 118840:1 118841:1 118842:1 118843:1 118844:1 118845:1 118846:1 118847:1 118848:1 118849:1 118850:1 118851:1 118852:1 118853:1 118854:1 118855:1 118856:1 118857:1 118858:1 118859:1 118860:1 118861:1 118862:1 118863:1 118864:1 118865:1 118866:1 118867:1 118868:1 118869:1 118870:1 118871:1 118872:1 118873:1 118874:1 118875:1 118876:1 118877:1 118878:1 118879:1 118880:1 118881:1 118882:1 118883:1 118884:1 118885:1 118886:1 118887:1 118888:1 118889:1 
1 1:532 2:1 3:10 9:1 11:1 155:1 156:1 157:1 158:1 1551:1 1566:1 1567:1 1577:1 1596:1 1606:1 1615:3 1618:1 1623:1 1655:1 1659:1 1705:2 1783:1 1814:2 1829:1 1834:1 1836:4 1846:4 1852:1 1871:1 1903:1 2002:1 2007:1 2026:1 2177:2 2439:2 2535:3 2632:2 2766:1 2875:1 2917:1 3036:1 3156:1 3157:1 3158:5 3159:3 3160:3 3161:2 3162:1 3163:1 3164:1 3165:1 3166:2 3167:1 3168:1 3169:1 3170:1 10434:1 10435:1 10490:2 10516:16 10807:1 10877:1 10894:1 10925:2 11003:1 11217:1 11511:1 11662:1 11724:1 11735:1 11788:1 11789:1 11790:1 11844:1 11852:1 11964:2 11966:1 12124:1 12482:1 12552:2 12979:1 12995:1 13080:1 13111:1 13134:1 13238:1 13422:1 13639:1 13667:1 13847:1 14300:1 14800:1 14801:1 14895:1 15431:1 15602:1 16104:2 16107:1 16182:1 16446:1 16744:1 16906:1 17401:2 17669:2 17722:1 18193:1 18352:1 18472:1 18583:1 18979:1 19449:1 19538:1 19568:2 20362:1 20363:1 20364:1 20365:1 20366:1 20367:1 20368:1 20369:1 20370:1 20371:1 20372:1 20373:1 20374:1 20375:1 20376:3 20377:3 20378:1 20379:1 20380:2 20381:1 20382:1 20383:3 20384:1 20385:1 20386:1 20387:1 20388:1 20389:1 20390:1 20391:1 20392:1 20393:1 20394:1 20395:1 20396:1 20397:2 20398:1 20399:1 20400:1 20401:1 20402:1 20403:1 20404:1 20405:1 20406:1 20407:1 20408:1 20409:1 20410:1 20411:1 20412:1 20413:2 20414:1 20415:1 20416:1 20417:1 20418:1 20419:1 20420:1 20421:1 20422:1 20423:1 20424:1 20425:1 20426:1 20427:1 20428:1 20429:1 20430:1 20431:1 20432:1 20433:1 20434:1 20435:1 20436:1 20437:1 20438:1 20439:1 20440:1 20441:1 20442:1 20443:1 20444:1 20445:1 20446:1 20447:1 106487:1 106842:12 107683:1 107983:1 107984:1 108046:1 108047:1 108428:1 108776:1 110217:1 110446:1 111623:1 111624:1 111742:1 113250:1 114309:1 114320:1 115428:1 117300:1 117301:1 117791:1 118122:1 118890:1 118891:1 118892:1 118893:1 118894:1 118895:1 118896:1 118897:1 118898:1 118899:1 118900:1 118901:1 118902:1 118903:1 118904:1 118905:1 118906:1 118907:1 118908:3 118909:1 118910:1 118911:1 118912:2 118913:1 118914:1 118915:1 118916:1 118917:1 118918:1 118919:1 118920:1 118921:1 118922:1 118923:1 118924:1 118925:1 118926:1 118927:1 118928:1 118929:1 118930:1 118931:1 118932:1 118933:1 118934:1 118935:1 118936:1 118937:1 118938:1 118939:2 118940:2 118941:1 118942:1 118943:1 118944:1 118945:1 118946:1 118947:1 118948:1 118949:1 118950:1 118951:1 118952:1 118953:1 118954:1 118955:1 118956:1 118957:1 118958:1 118959:1 118960:1 118961:1 118962:2 118963:1 118964:1 118965:1 118966:1 118967:1 118968:1 118969:1 118970:1 118971:1 118972:1 118973:1 118974:1 118975:1 118976:1 118977:1 118978:1 118979:1 118980:1 118981:1 118982:1 118983:1 118984:1 118985:1 118986:1 118987:1 118988:1 118989:1 118990:1 118991:1 118992:1 118993:1 118994:1 118995:1 118996:1 118997:1 118998:1 118999:1 119000:1 119001:1 119002:1 119003:1 119004:1 119005:1 119006:1 119007:1 119008:1 119009:1 119010:1 119011:1 119012:1 119013:1 119014:1 
1 1:680 2:1 3:18 9:1 11:1 159:1 160:1 161:1 162:1 163:1 164:1 1558:1 1567:1 1568:1 1577:1 1578:1 1596:1 1597:2 1600:2 1615:7 1623:1 1631:1 1633:1 1646:1 1655:3 1657:1 1659:1 1673:1 1690:1 1699:1 1705:4 1706:1 1728:1 1763:1 1793:1 1796:1 1832:1 1836:1 1859:7 1861:1 1883:1 1987:1 2036:1 2126:2 2166:2 2182:1 2392:1 2396:1 2399:4 2486:1 2592:1 2593:1 2678:1 2715:1 2956:1 3078:2 3133:2 3171:1 3172:2 3173:6 3174:5 3175:3 3176:1 3177:1 3178:1 3179:1 3180:3 3181:3 3182:3 3183:1 3184:1 3185:1 3186:1 3187:1 3188:1 3189:1 3190:1 3191:1 3192:1 10393:1 10436:1 10498:2 10536:1 10676:1 10859:1 10877:1 10888:5 11069:1 11096:1 11131:1 11138:1 11236:1 11248:1 11280:2 11333:1 11460:4 11489:1 11532:1 11685:1 11710:1 11756:1 11803:1 11804:1 11830:1 11842:1 12006:1 12007:1 12314:1 12341:1 12445:1 12463:1 12850:1 13080:1 13081:1 13246:1 13345:2 13464:1 13738:1 13871:1 13916:2 13953:3 14329:1 14650:1 14992:1 15260:1 15290:1 15292:1 15295:1 15722:1 15786:1 16057:1 16103:2 16172:1 16595:1 17044:1 17231:1 18020:1 19268:1 19913:1 20065:1 20066:2 20448:1 20449:1 20450:1 20451:3 20452:1 20453:1 20454:1 20455:1 20456:1 20457:1 20458:1 20459:1 20460:1 20461:1 20462:1 20463:1 20464:1 20465:1 20466:1 20467:1 20468:1 20469:1 20470:1 20471:1 20472:1 20473:1 20474:1 20475:1 20476:1 20477:1 20478:1 20479:1 20480:1 20481:1 20482:1 20483:1 20484:1 20485:1 20486:1 20487:2 20488:3 20489:1 20490:1 20491:1 20492:1 20493:1 20494:1 20495:1 20496:1 20497:1 20498:1 20499:1 20500:1 20501:2 20502:1 20503:1 20504:1 20505:1 20506:1 20507:1 20508:1 20509:1 20510:1 20511:1 20512:1 20513:1 20514:1 20515:1 20516:1 20517:1 20518:1 20519:1 20520:1 20521:1 20522:1 20523:1 20524:1 20525:1 20526:1 20527:1 20528:1 20529:1 20530:1 20531:1 20532:1 20533:1 20534:1 20535:1 20536:1 20537:1 20538:1 20539:1 20540:1 20541:1 20542:1 20543:1 20544:1 20545:1 20546:1 20547:1 20548:1 20549:1 20550:1 20551:1 20552:1 20553:1 20554:1 20555:1 20556:1 20557:2 20558:2 20559:1 20560:1 20561:1 20562:1 20563:1 20564:1 20565:1 20566:1 20567:1 20568:1 20569:1 20570:1 20571:1 20572:1 20573:1 20574:1 20575:1 20576:1 20577:1 20578:1 20579:1 20580:1 20581:2 20582:1 20583:1 20584:1 20585:1 20586:1 20587:1 20588:1 20589:1 20590:1 20591:1 20592:1 20593:1 20594:1 20595:1 20596:1 20597:1 20598:1 20599:1 20600:1 20601:1 20602:1 20603:1 20604:1 20605:1 20606:1 107365:1 107999:1 108000:1 108101:1 108235:1 109484:1 110473:1 111863:1 113245:1 113329:1 116709:1 118390:1 119015:1 119016:1 119017:1 119018:1 119019:1 119020:1 119021:1 119022:1 119023:1 119024:1 119025:1 119026:1 119027:1 119028:1 119029:1 119030:1 119031:1 119032:1 119033:1 119034:1 119035:1 119036:1 119037:1 119038:1 119039:1 119040:1 119041:1 119042:1 119043:1 119044:1 119045:1 119046:1 119047:1 119048:1 119049:1 119050:1 119051:1 119052:1 119053:1 119054:1 119055:1 119056:1 119057:1 119058:1 119059:1 119060:1 119061:1 119062:1 119063:1 119064:1 119065:1 119066:1 119067:1 119068:1 119069:1 119070:1 119071:2 119072:1 119073:1 119074:1 119075:1 119076:1 119077:1 119078:1 119079:1 119080:1 119081:1 119082:1 119083:1 119084:1 119085:1 119086:1 119087:1 119088:1 119089:1 119090:1 119091:1 119092:1 119093:1 119094:1 119095:1 119096:1 119097:1 119098:1 119099:1 119100:1 119101:1 119102:1 119103:1 119104:1 119105:1 119106:1 119107:1 119108:1 119109:1 119110:1 119111:1 119112:1 119113:1 119114:1 119115:1 119116:1 119117:1 119118:1 119119:1 119120:1 119121:1 119122:1 119123:1 119124:1 119125:1 119126:1 119127:1 119128:1 119129:1 119130:1 119131:1 119132:1 119133:1 119134:1 119135:1 119136:1 119137:1 119138:1 119139:1 119140:1 119141:1 119142:1 119143:1 119144:1 119145:1 119146:1 119147:1 119148:1 119149:1 119150:1 119151:1 119152:1 119153:1 119154:1 119155:1 119156:1 119157:1 119158:1 119159:2 119160:1 119161:1 119162:1 119163:1 119164:1 119165:1 119166:1 119167:1 119168:1 119169:1 119170:1 119171:1 119172:1 119173:1 119174:1 119175:1 119176:1 119177:1 119178:1 119179:1 119180:1 119181:1 119182:1 119183:1 119184:1 119185:1 119186:1 119187:1 119188:1 119189:1 119190:1 119191:1 119192:1 119193:1 119194:1 119195:1 119196:1 119197:1 119198:1 119199:1 119200:1 119201:1 119202:1 119203:1 119204:1 119205:1 119206:1 119207:1 119208:1 119209:1 119210:1 119211:1 119212:1 119213:1 119214:1 119215:1 119216:1 119217:1 119218:1 119219:1 119220:1 119221:1 119222:1 119223:1 119224:1 119225:1 119226:1 119227:1 119228:1 119229:1 119230:1 119231:1 119232:1 119233:1 119234:1 
1 1:379 2:1 3:18 9:1 11:1 165:1 166:1 167:2 1566:1 1596:2 1612:1 1623:1 1632:1 1642:1 1691:1 1693:1 1783:1 1842:1 2058:1 2105:1 2147:1 2461:2 2553:2 2832:1 2911:1 2929:3 3193:3 3194:3 3195:1 3196:1 3197:1 3198:1 3199:1 3200:1 10399:1 10435:1 10490:3 10628:1 10693:1 10694:1 10695:3 10696:1 10699:1 10700:1 10704:1 10705:1 10706:1 10707:1 10708:1 10711:1 10712:1 10715:1 10716:1 10744:3 11017:1 11467:1 11516:1 11898:1 12307:1 12540:1 12575:1 12979:1 13333:1 13334:1 13364:1 13642:1 14173:1 14780:1 15165:1 15260:1 15836:2 16501:1 20607:1 20608:1 20609:1 20610:1 20611:1 20612:1 20613:1 20614:1 20615:1 20616:1 20617:1 20618:1 20619:1 20620:1 20621:1 20622:1 20623:1 20624:1 20625:1 20626:3 20627:3 20628:3 20629:1 20630:1 20631:2 20632:1 20633:2 20634:1 20635:1 20636:2 20637:2 20638:1 20639:1 20640:1 20641:1 20642:1 20643:1 20644:1 20645:1 20646:1 20647:1 20648:1 20649:1 20650:1 20651:1 20652:1 20653:1 20654:1 20655:1 20656:1 20657:1 20658:1 20659:1 20660:1 20661:1 20662:1 20663:1 20664:1 20665:1 20666:1 20667:1 20668:1 20669:1 20670:1 20671:1 20672:1 20673:1 20674:1 20675:1 20676:1 20677:1 20678:1 20679:1 20680:1 20681:1 20682:1 20683:1 20684:1 20685:1 20686:1 20687:1 20688:1 20689:1 20690:1 106739:1 106740:1 106741:1 106745:1 106751:1 106752:1 106753:1 106754:1 106755:1 106756:1 106761:1 106765:1 107628:1 109191:1 109789:1 109790:1 109791:1 114705:1 119235:1 119236:1 119237:1 119238:1 119239:1 119240:1 119241:1 119242:1 119243:1 119244:1 119245:1 119246:1 119247:1 119248:1 119249:1 119250:1 119251:1 119252:1 119253:1 119254:1 119255:1 119256:1 119257:1 119258:1 119259:1 119260:3 119261:3 119262:3 119263:1 119264:1 119265:1 119266:1 119267:1 119268:1 119269:2 119270:1 119271:1 119272:1 119273:1 119274:1 119275:1 119276:1 119277:1 119278:1 119279:1 119280:1 119281:1 119282:1 119283:1 119284:1 119285:1 119286:1 119287:1 119288:1 119289:1 119290:1 119291:1 119292:1 119293:1 119294:1 119295:1 119296:1 119297:1 119298:1 119299:1 119300:1 119301:1 119302:1 119303:1 119304:1 119305:1 119306:1 119307:1 119308:1 119309:1 119310:1 119311:1 119312:1 119313:1 119314:1 119315:1 119316:1 119317:1 119318:1 119319:1 119320:1 119321:1 119322:1 119323:1 119324:1 119325:1 119326:1 119327:1 119328:1 119329:1 119330:1 119331:1 119332:1 
1 1:717 2:1 3:10 9:1 11:1 15:1 104:2 168:2 169:1 170:1 1551:1 1557:1 1558:1 1567:1 1569:1 1577:2 1578:1 1585:1 1596:1 1612:1 1613:2 1615:1 1618:2 1623:1 1629:1 1637:1 1642:1 1659:1 1663:4 1678:3 1698:1 1728:1 1762:1 1850:1 1858:1 1859:1 1871:3 1938:1 1969:1 1995:1 2070:1 2071:12 2147:1 2391:1 2551:1 2606:1 2715:1 2727:5 2902:1 2962:2 2976:1 3201:1 3202:2 3203:7 3204:1 3205:1 3206:3 3207:1 3208:1 3209:1 3210:1 3211:1 3212:1 3213:3 3214:1 3215:1 3216:2 3217:3 3218:2 3219:1 10356:1 10393:1 10467:1 10528:1 10570:1 10773:1 11017:1 11097:1 11460:1 11617:1 11703:1 11719:1 11852:2 11944:1 11951:1 12069:1 12172:1 12469:1 12736:1 12737:1 13092:1 13104:1 13124:2 13125:1 13627:1 13819:1 14069:1 14554:1 14555:1 14787:1 15116:1 15228:1 15801:1 16124:1 16653:1 17341:1 17992:1 18534:1 18921:1 19044:1 19703:1 20082:1 20547:1 20691:1 20692:1 20693:1 20694:1 20695:1 20696:1 20697:6 20698:1 20699:1 20700:1 20701:1 20702:1 20703:1 20704:1 20705:1 20706:1 20707:1 20708:1 20709:1 20710:1 20711:1 20712:1 20713:1 20714:1 20715:1 20716:1 20717:1 20718:1 20719:1 20720:1 20721:1 20722:1 20723:1 20724:1 20725:1 20726:1 20727:1 20728:1 20729:1 20730:1 20731:1 20732:1 20733:1 20734:1 20735:1 20736:1 20737:1 20738:1 20739:2 20740:1 20741:1 20742:1 20743:1 20744:1 20745:1 20746:1 20747:1 20748:1 20749:1 20750:1 20751:1 20752:1 20753:1 20754:1 20755:1 20756:1 20757:1 20758:1 20759:1 20760:1 20761:1 20762:1 20763:1 20764:1 20765:1 20766:1 20767:1 20768:1 20769:1 20770:1 20771:1 20772:1 20773:1 20774:1 20775:1 20776:1 20777:1 20778:1 20779:1 20780:1 20781:1 20782:1 20783:1 20784:1 20785:1 20786:1 20787:1 20788:1 20789:1 20790:1 20791:1 20792:1 20793:1 20794:1 20795:1 20796:1 20797:1 20798:1 20799:1 20800:1 20801:1 20802:1 20803:1 20804:1 20805:1 20806:1 20807:1 20808:1 20809:1 20810:1 20811:1 20812:1 20813:1 20814:1 20815:2 20816:1 20817:1 20818:1 20819:1 20820:1 20821:1 109096:1 109535:1 110415:1 110694:1 110695:1 111319:1 111320:1 116423:1 119333:1 119334:1 119335:1 119336:1 119337:1 119338:1 119339:1 119340:1 119341:1 119342:1 119343:1 119344:1 119345:1 119346:1 119347:1 119348:1 119349:1 119350:1 119351:1 119352:1 119353:1 119354:1 119355:1 119356:1 119357:1 119358:1 119359:1 119360:1 119361:1 119362:1 119363:1 119364:1 119365:1 119366:1 119367:1 119368:1 119369:1 119370:1 119371:1 119372:1 119373:1 119374:1 119375:1 119376:1 119377:1 119378:1 119379:1 119380:1 119381:1 119382:1 119383:1 119384:1 119385:1 119386:1 119387:1 119388:1 119389:1 119390:1 119391:1 119392:1 119393:1 119394:1 119395:1 119396:1 119397:1 119398:1 119399:1 119400:1 119401:1 119402:1 119403:1 119404:1 119405:1 119406:1 119407:1 119408:1 119409:1 119410:1 119411:1 119412:1 119413:1 119414:1 119415:1 119416:1 119417:1 119418:1 119419:1 119420:1 119421:1 119422:1 119423:1 119424:1 119425:1 119426:1 119427:1 119428:1 119429:1 119430:1 119431:1 119432:1 119433:1 119434:1 119435:1 119436:1 119437:1 119438:1 119439:1 119440:1 119441:1 119442:1 119443:1 119444:1 119445:1 119446:1 119447:1 119448:1 119449:1 119450:1 119451:1 119452:1 119453:1 119454:1 119455:1 119456:1 119457:1 119458:1 119459:1 119460:1 119461:1 119462:1 119463:1 119464:1 119465:1 119466:1 119467:1 119468:1 119469:1 119470:1 119471:1 119472:1 119473:1 119474:1 119475:1 119476:1 119477:1 119478:1 119479:1 119480:1 119481:1 119482:1 119483:1 119484:1 119485:1 119486:1 119487:1 119488:1 119489:1 119490:1 119491:1 119492:1 
1 1:714 3:19 9:2 11:1 110:1 171:1 172:1 173:1 174:1 175:1 176:1 177:1 178:1 179:1 180:1 181:1 1551:4 1568:1 1577:1 1578:1 1584:1 1585:1 1587:1 1593:1 1595:1 1600:1 1612:5 1615:6 1623:1 1632:1 1642:1 1655:1 1688:1 1705:2 1719:1 1728:2 1734:1 1746:1 1777:1 1780:1 1792:4 1814:1 1824:1 1832:1 1839:1 1849:1 1850:1 1862:1 1866:1 1915:3 1973:1 1984:2 1995:1 2028:1 2173:1 2194:1 2202:1 2212:1 2247:1 2277:1 2279:1 2282:1 2288:2 2383:1 2390:2 2391:2 2535:2 2620:2 2632:2 2755:1 2776:2 2808:1 2811:5 2823:1 2876:1 2877:2 2934:2 2938:1 2955:1 3115:1 3133:1 3187:2 3220:1 3221:2 3222:2 3223:3 3224:3 3225:1 3226:1 3227:1 3228:1 3229:1 3230:1 3231:1 3232:1 3233:1 3234:1 3235:5 3236:1 3237:2 3238:3 3239:1 3240:1 3241:1 3242:1 3243:2 3244:2 3245:1 3246:1 3247:2 3248:1 3249:1 3250:1 10356:1 10435:1 10527:1 10558:1 10628:1 10757:1 10758:1 10887:1 10888:1 10890:1 10964:1 10968:1 10976:1 10977:1 11040:1 11080:1 11096:1 11121:1 11152:1 11192:2 11236:1 11245:1 11326:1 11348:1 11441:1 11489:1 11501:1 11505:2 11532:2 11604:1 11679:1 11688:1 11703:3 11766:1 11803:1 11804:2 11816:1 11908:1 11912:1 11956:1 12048:1 12087:1 12092:1 12314:1 12330:1 12451:1 12454:1 12554:1 12724:1 12939:1 13368:1 13871:1 13877:2 14086:1 14099:1 14130:1 14370:1 14432:1 14694:1 14707:1 14755:1 15214:2 15228:2 15238:1 15607:1 15687:1 16182:1 16316:1 16327:1 16821:1 17183:1 17327:1 17780:2 18264:1 18368:1 18498:1 18551:1 19327:1 19470:1 19683:1 19820:1 20009:1 20010:1 20026:1 20148:1 20822:1 20823:1 20824:1 20825:2 20826:2 20827:1 20828:1 20829:2 20830:1 20831:1 20832:3 20833:1 20834:1 20835:1 20836:1 20837:1 20838:1 20839:1 20840:1 20841:1 20842:1 20843:1 20844:1 20845:1 20846:1 20847:1 20848:1 20849:1 20850:1 20851:1 20852:1 20853:1 20854:1 20855:1 20856:1 20857:1 20858:1 20859:1 20860:1 20861:1 20862:1 20863:1 20864:1 20865:1 20866:1 20867:1 20868:1 20869:1 20870:1 20871:1 20872:1 20873:1 20874:1 20875:1 20876:1 20877:1 20878:1 20879:1 20880:1 20881:1 20882:1 20883:3 20884:2 20885:1 20886:1 20887:1 20888:1 20889:1 20890:1 20891:1 20892:1 20893:1 20894:1 20895:1 20896:1 20897:1 20898:1 20899:1 20900:2 20901:2 20902:2 20903:1 20904:1 20905:1 20906:1 20907:1 20908:1 20909:1 20910:1 20911:1 20912:1 20913:1 20914:1 20915:1 20916:1 20917:1 20918:1 20919:1 20920:1 20921:1 20922:1 20923:1 20924:1 20925:1 20926:1 20927:1 20928:1 20929:1 20930:1 20931:1 20932:1 20933:1 20934:1 20935:1 20936:1 20937:1 20938:1 20939:1 20940:1 20941:1 20942:1 20943:1 20944:1 20945:1 20946:1 20947:1 20948:1 20949:1 20950:1 20951:1 20952:1 20953:1 20954:1 20955:1 20956:1 20957:1 20958:1 20959:1 20960:1 20961:1 20962:1 20963:1 20964:1 20965:1 20966:1 20967:1 20968:1 20969:1 20970:2 20971:1 20972:1 20973:1 20974:1 20975:2 20976:1 20977:1 20978:1 20979:1 20980:1 20981:1 20982:1 20983:1 20984:1 20985:1 20986:1 20987:1 20988:1 20989:1 106808:1 106809:1 106946:1 107044:1 107254:1 107999:1 108000:1 108031:1 108180:1 108755:1 108756:1 110473:1 110513:1 110949:1 114705:1 114847:1 114886:1 114887:1 115500:2 118433:1 118435:1 119493:1 119494:1 119495:1 119496:1 119497:2 119498:1 119499:1 119500:1 119501:1 119502:1 119503:1 119504:1 119505:1 119506:1 119507:1 119508:1 119509:1 119510:1 119511:1 119512:1 119513:1 119514:1 119515:1 119516:1 119517:1 119518:1 119519:1 119520:1 119521:1 119522:1 119523:1 119524:1 119525:1 119526:1 119527:1 119528:1 119529:1 119530:1 119531:1 119532:1 119533:1 119534:1 119535:1 119536:1 119537:1 119538:1 119539:1 119540:1 119541:1 119542:1 119543:1 119544:1 119545:1 119546:1 119547:1 119548:1 119549:1 119550:1 119551:1 119552:1 119553:1 119554:1 119555:1 119556:1 119557:1 119558:1 119559:1 119560:1 119561:1 119562:1 119563:1 119564:1 119565:1 119566:1 119567:1 119568:1 119569:1 119570:1 119571:1 119572:1 119573:2 119574:1 119575:1 119576:1 119577:1 119578:1 119579:1 119580:1 119581:1 119582:1 119583:1 119584:1 119585:1 119586:1 119587:1 119588:1 119589:1 119590:1 119591:1 119592:1 119593:1 119594:1 119595:1 119596:1 119597:1 119598:1 119599:1 119600:1 119601:1 119602:1 119603:1 119604:1 119605:1 119606:2 119607:1 119608:2 119609:1 119610:1 119611:1 119612:1 119613:1 119614:1 119615:1 119616:1 119617:1 119618:1 119619:1 119620:1 119621:1 119622:1 119623:1 119624:1 119625:1 119626:1 119627:1 119628:1 119629:1 119630:1 119631:1 119632:1 119633:1 119634:1 119635:1 119636:1 119637:1 119638:1 119639:1 119640:1 119641:1 119642:1 119643:1 119644:1 119645:1 119646:1 119647:1 119648:1 119649:1 119650:1 119651:1 119652:1 119653:1 119654:1 119655:1 119656:1 119657:1 119658:1 119659:1 119660:1 119661:1 119662:1 119663:1 119664:1 119665:1 119666:1 119667:1 119668:1 119669:1 119670:1 119671:1 119672:1 119673:1 119674:1 119675:1 119676:1 119677:1 119678:1 119679:1 119680:1 119681:1 119682:1 119683:1 119684:1 119685:1 119686:1 119687:1 119688:1 119689:1 119690:1 119691:1 119692:1 119693:1 119694:1 119695:1 119696:1 119697:1 119698:1 119699:1 119700:1 119701:1 119702:1 119703:1 119704:1 119705:1 119706:1 119707:1 119708:1 119709:1 119710:1 119711:1 119712:1 119713:1 119714:1 119715:1 119716:1 119717:1 119718:1 119719:1 119720:1 119721:1 119722:1 119723:1 119724:1 119725:1 119726:1 119727:1 119728:1 119729:1 119730:1 119731:1 119732:1 119733:1 119734:1 119735:1 
1 1:622 3:10 11:1 191:1 192:1 193:1 194:1 195:1 196:1 197:1 1551:1 1553:1 1557:1 1558:1 1562:2 1567:1 1569:2 1581:1 1594:1 1599:1 1600:1 1602:1 1610:1 1615:2 1620:1 1623:3 1627:1 1642:1 1655:5 1658:1 1659:2 1673:2 1690:1 1719:1 1735:1 1754:1 1791:1 1830:1 1842:1 1843:1 1862:1 2001:1 2038:1 2055:1 2087:1 2138:1 2150:1 2171:1 2184:3 2207:1 2219:1 2261:1 2329:1 2547:1 2551:1 2784:1 3078:1 3084:1 3124:1 3210:1 3235:2 3296:1 3297:5 3298:2 3299:1 3300:1 3301:1 3302:1 3303:1 3304:1 3305:1 3306:1 3307:1 3308:1 3309:1 3310:1 3311:1 3312:1 3313:1 3314:1 3315:1 3316:1 3317:1 3318:1 3319:1 3320:1 3321:1 3322:1 3323:1 3324:1 3325:1 3326:1 3327:1 3328:1 3329:1 3330:1 3331:1 3332:1 3333:1 3334:1 3335:1 3336:1 3337:1 3338:1 3339:1 10393:2 10426:1 10434:1 10435:1 10444:1 10470:1 10490:1 10550:1 10719:1 10749:1 10751:1 10769:1 10828:2 10860:1 10868:1 10872:1 10873:1 10968:1 10977:1 11028:1 11042:1 11088:1 11092:1 11119:1 11138:1 11172:1 11221:1 11236:2 11265:1 11272:1 11413:1 11414:1 11634:1 11654:1 11679:1 11691:1 11777:1 11807:1 12069:1 12086:1 12087:2 12262:1 12314:1 12578:1 12830:1 12950:1 13291:1 13388:1 13496:1 13595:1 13633:1 13871:1 13910:1 14008:1 14183:1 14184:1 14237:1 14349:1 14469:1 14842:1 15088:1 16172:1 16182:1 16422:1 16820:1 16834:1 17019:1 17046:1 17080:1 17106:1 17521:1 17618:1 17670:1 18018:1 18246:1 18324:1 18325:1 18437:1 18692:1 18707:1 19312:1 19773:2 20176:1 20524:1 20525:1 21258:1 21369:1 21370:1 21371:1 21372:1 21373:2 21374:1 21375:1 21376:1 21377:1 21378:1 21379:1 21380:1 21381:1 21382:1 21383:1 21384:1 21385:1 21386:1 21387:1 21388:1 21389:1 21390:1 21391:1 21392:1 21393:1 21394:1 21395:1 21396:1 21397:1 21398:1 21399:1 21400:1 21401:1 21402:1 21403:1 21404:1 21405:1 21406:1 21407:1 21408:1 21409:1 21410:1 21411:1 21412:1 21413:1 21414:1 21415:1 21416:1 21417:1 21418:1 21419:1 21420:1 21421:1 21422:1 21423:1 21424:1 21425:1 21426:1 21427:1 21428:1 21429:1 21430:1 21431:1 21432:1 21433:1 21434:1 21435:1 21436:1 21437:1 21438:2 21439:1 21440:1 21441:1 21442:1 21443:1 21444:1 21445:1 21446:1 21447:1 21448:1 21449:1 21450:1 21451:1 21452:1 21453:1 21454:1 21455:1 21456:1 21457:1 21458:1 21459:1 21460:1 21461:1 21462:1 21463:1 21464:1 21465:1 21466:1 21467:1 21468:1 21469:1 21470:1 21471:1 21472:1 21473:1 21474:1 21475:1 21476:1 21477:1 21478:1 21479:1 21480:1 21481:1 21482:1 21483:1 21484:1 21485:1 21486:1 21487:1 21488:1 21489:1 21490:1 21491:1 21492:1 21493:1 21494:1 21495:1 21496:1 21497:1 21498:1 21499:1 21500:1 21501:1 21502:1 21503:1 21504:1 21505:1 21506:1 21507:1 21508:1 21509:1 21510:1 21511:1 21512:1 21513:1 21514:1 21515:1 21516:1 21517:1 21518:1 21519:2 21520:2 21521:2 21522:1 21523:1 21524:1 21525:1 21526:1 21527:1 21528:1 21529:1 21530:1 21531:1 21532:1 21533:1 21534:1 21535:1 21536:1 21537:1 21538:1 21539:1 21540:1 21541:1 21542:1 21543:1 21544:1 21545:1 21546:1 21547:1 21548:1 21549:1 21550:1 21551:1 21552:1 21553:1 21554:1 21555:1 21556:1 21557:1 21558:1 21559:1 21560:1 21561:1 21562:1 21563:1 21564:1 21565:1 21566:1 21567:1 21568:1 21569:1 21570:1 21571:1 21572:1 106487:1 106929:1 107560:1 108130:1 108321:1 108824:1 109921:2 110187:1 110410:1 110473:1 110626:1 110838:1 110911:1 113330:1 113647:1 114992:1 116169:1 116170:1 116709:1 119123:1 120231:1 120232:1 120233:1 120234:1 120235:1 120236:1 120237:1 120238:1 120239:1 120240:1 120241:1 120242:1 120243:1 120244:1 120245:1 120246:1 120247:1 120248:1 120249:1 120250:1 120251:1 120252:1 120253:1 120254:1 120255:1 120256:1 120257:1 120258:1 120259:1 120260:1 120261:1 120262:1 120263:1 120264:1 120265:1 120266:1 120267:1 120268:1 120269:1 120270:1 120271:1 120272:1 120273:1 120274:1 120275:1 120276:1 120277:1 120278:1 120279:1 120280:1 120281:1 120282:1 120283:1 120284:1 120285:1 120286:1 120287:1 120288:1 120289:1 120290:1 120291:1 120292:1 120293:1 120294:1 120295:1 120296:1 120297:1 120298:1 120299:1 120300:1 120301:1 120302:1 120303:1 120304:1 120305:1 120306:1 120307:1 120308:1 120309:1 120310:1 120311:1 120312:1 120313:1 120314:1 120315:1 120316:1 120317:1 120318:1 120319:1 120320:1 120321:1 120322:1 120323:1 120324:1 120325:1 120326:1 120327:1 120328:1 120329:1 120330:1 120331:1 120332:1 120333:1 120334:1 120335:1 120336:1 120337:1 120338:1 120339:1 120340:1 120341:1 120342:1 120343:1 120344:1 120345:1 120346:1 120347:1 120348:1 120349:1 120350:1 120351:1 120352:1 120353:1 120354:1 120355:1 120356:1 120357:1 120358:1 120359:1 120360:1 120361:1 120362:1 120363:1 120364:1 120365:1 120366:1 120367:1 120368:1 120369:1 120370:1 120371:1 120372:1 120373:1 120374:1 120375:1 120376:1 120377:1 120378:1 120379:1 120380:1 120381:1 120382:1 120383:1 120384:1 120385:1 120386:1 120387:1 120388:1 120389:1 120390:1 120391:1 120392:1 120393:1 120394:1 120395:1 120396:1 120397:1 120398:1 120399:1 120400:1 120401:1 120402:1 120403:1 120404:1 120405:1 120406:1 120407:1 120408:1 120409:1 120410:1 120411:1 120412:1 120413:1 120414:1 120415:1 120416:1 120417:1 120418:1 120419:1 120420:1 120421:1 120422:1 120423:1 120424:1 120425:1 120426:1 120427:1 120428:1 120429:1 120430:1 120431:1 120432:2 120433:1 120434:1 120435:1 120436:1 120437:1 120438:1 120439:1 120440:1 120441:1 120442:1 120443:1 120444:1 120445:1 120446:1 120447:1 120448:1 120449:1 120450:1 120451:1 120452:1 120453:1 120454:1 120455:1 120456:1 120457:1 120458:1 120459:1 120460:1 120461:1 120462:1 120463:1 120464:1 120465:1 120466:1 120467:1 120468:1 120469:1 120470:1 120471:1 120472:1 120473:1 120474:1 120475:1 120476:1 120477:1 120478:1 120479:1 120480:1 120481:1 120482:1 120483:1 120484:1 120485:1 120486:1 120487:1 120488:1 120489:1 120490:1 120491:1 120492:1 120493:1 120494:1 120495:1 120496:1 120497:1 120498:1 120499:1 120500:1 120501:1 120502:1 120503:1 120504:1 
1 1:470 2:1 3:9 9:7 11:1 122:3 198:4 199:4 200:1 201:1 202:1 203:1 204:1 1551:2 1556:1 1562:1 1578:1 1599:2 1612:3 1615:1 1617:1 1618:2 1623:1 1632:1 1652:1 1655:2 1658:1 1694:1 1705:2 1719:1 1756:1 1850:3 1859:1 1898:1 1994:1 2149:1 2150:1 2188:1 2416:1 2482:1 2582:2 2911:1 2912:1 2966:1 3101:1 3340:1 3341:2 3342:1 3343:1 3344:1 3345:2 3346:3 3347:3 3348:2 3349:1 3350:1 3351:1 3352:1 3353:1 3354:1 3355:1 10381:1 10435:1 10553:1 10558:2 10584:1 10606:1 10628:1 10693:1 10694:1 10695:4 10696:1 10699:1 10700:1 10703:1 10704:1 10705:1 10706:1 10707:1 10708:1 10711:1 10712:1 10715:1 10716:1 10756:1 10859:1 10888:1 10900:1 10904:2 10928:1 11003:1 11175:1 11236:1 11467:1 11703:1 11792:3 11872:1 12068:1 12314:2 12315:1 12327:1 12850:1 13161:1 13536:1 13543:1 13638:2 13871:1 14136:1 14425:1 14602:1 14707:1 14763:1 14900:1 14979:1 14983:2 15152:1 15385:1 15960:1 16144:1 16388:1 16437:1 16672:1 16765:1 16898:1 17022:1 17986:1 18631:1 18703:1 18707:1 18940:1 19053:1 19277:1 19399:1 19440:1 19998:1 20677:1 20682:1 21485:1 21519:1 21573:1 21574:1 21575:1 21576:1 21577:1 21578:1 21579:1 21580:1 21581:1 21582:1 21583:1 21584:1 21585:1 21586:1 21587:1 21588:1 21589:1 21590:1 21591:1 21592:1 21593:1 21594:1 21595:1 21596:1 21597:1 21598:3 21599:1 21600:1 21601:1 21602:1 21603:1 21604:1 21605:3 21606:1 21607:1 21608:1 21609:1 21610:1 21611:1 21612:1 21613:1 21614:1 21615:1 21616:1 21617:1 21618:1 21619:1 21620:1 21621:1 21622:1 21623:1 21624:1 21625:1 21626:1 21627:1 21628:1 21629:1 21630:1 21631:1 21632:1 21633:1 21634:1 21635:1 21636:1 21637:1 21638:1 21639:1 21640:1 21641:1 21642:1 21643:1 21644:1 21645:1 21646:1 21647:1 21648:1 21649:1 21650:1 21651:1 21652:1 21653:1 21654:1 21655:1 21656:1 21657:1 21658:1 21659:1 21660:1 21661:1 21662:1 21663:1 21664:1 21665:1 21666:1 21667:1 21668:1 21669:1 21670:1 21671:1 106739:1 106740:1 106741:1 106745:1 106746:1 106750:1 106751:1 106752:1 106753:1 106754:1 106755:1 106756:1 106761:1 106765:1 106961:1 107279:1 107628:1 108078:1 108594:1 110065:1 110473:1 112356:1 114705:1 116709:1 117428:1 118489:1 119320:1 120459:1 120505:1 120506:1 120507:1 120508:1 120509:1 120510:1 120511:1 120512:1 120513:1 120514:1 120515:1 120516:1 120517:1 120518:1 120519:1 120520:1 120521:1 120522:1 120523:1 120524:1 120525:1 120526:1 120527:1 120528:1 120529:1 120530:1 120531:1 120532:1 120533:1 120534:1 120535:1 120536:1 120537:1 120538:1 120539:1 120540:1 120541:1 120542:1 120543:1 120544:1 120545:1 120546:1 120547:1 120548:1 120549:1 120550:1 120551:1 120552:2 120553:1 120554:1 120555:1 120556:1 120557:1 120558:1 120559:1 120560:1 120561:1 120562:1 120563:1 120564:1 120565:1 120566:1 120567:1 120568:1 120569:1 120570:1 120571:1 120572:1 120573:1 120574:1 120575:1 120576:1 120577:1 120578:1 120579:1 120580:1 120581:1 120582:1 120583:1 120584:1 120585:1 120586:1 120587:1 120588:1 120589:1 120590:1 120591:1 120592:1 120593:1 120594:1 120595:1 120596:1 120597:1 120598:1 120599:1 120600:1 120601:1 120602:1 120603:1 120604:1 120605:1 120606:1 120607:1 120608:1 120609:1 120610:1 120611:1 120612:1 120613:1 120614:1 120615:1 120616:1 120617:1 120618:1 120619:1 120620:1 120621:1 120622:1 120623:1 120624:1 120625:1 120626:1 120627:1 120628:1 120629:1 120630:1 120631:1 120632:1 120633:1 120634:1 120635:1 120636:1 120637:1 120638:1 120639:1 120640:1 120641:1 120642:1 120643:1 120644:1 120645:1 120646:1 120647:1 120648:1 120649:1 120650:1 120651:1 120652:1 120653:1 120654:1 120655:1 
1 1:704 3:11 9:1 11:1 194:1 205:2 206:2 1551:3 1552:1 1562:1 1568:1 1569:2 1570:3 1577:5 1578:1 1585:1 1599:1 1600:4 1612:5 1615:11 1623:1 1644:1 1655:1 1658:1 1659:1 1673:1 1691:1 1705:3 1706:1 1707:1 1754:1 1811:1 1813:1 1829:1 1834:1 1867:1 1954:1 2072:1 2094:1 2138:1 2157:1 2162:1 2230:1 2247:2 2261:1 2363:1 2371:1 2402:1 2403:1 2416:1 2595:1 2610:1 2625:2 2768:1 2840:1 2851:1 2898:1 2910:1 3136:1 3140:1 3303:1 3312:1 3330:1 3343:1 3348:1 3356:1 3357:1 3358:1 3359:2 3360:8 3361:1 3362:2 3363:1 3364:2 3365:1 3366:1 3367:1 3368:1 3369:1 3370:1 3371:1 3372:5 3373:1 3374:1 3375:1 3376:1 3377:1 10426:1 10443:3 10444:1 10446:1 10473:1 10528:1 10536:1 10539:1 10558:1 10606:1 10675:1 10744:1 10773:1 10877:1 10917:1 10925:4 10931:1 10968:1 10971:1 10975:1 11003:1 11004:1 11039:1 11042:1 11056:2 11212:1 11217:1 11348:1 11414:1 11604:1 11684:1 11806:1 11835:1 11859:1 11866:1 11992:1 12068:1 12070:1 12087:1 12168:1 12437:1 12438:2 12439:1 12463:1 12588:2 12589:1 12751:1 12804:1 12874:1 13091:1 13188:1 13354:1 13422:1 13441:1 13516:2 13667:1 13941:1 14087:1 14158:1 14293:1 14591:1 14990:1 15043:1 15088:1 15385:1 15607:1 15960:1 16523:1 16540:1 16765:1 16772:1 16875:1 17212:1 17316:1 17417:1 18062:1 18077:1 18099:1 18283:1 18317:1 18505:1 19766:1 19767:1 19840:1 20444:1 20494:1 20842:1 21084:1 21258:1 21582:1 21672:1 21673:1 21674:1 21675:1 21676:1 21677:1 21678:1 21679:1 21680:1 21681:1 21682:1 21683:1 21684:1 21685:1 21686:1 21687:1 21688:1 21689:1 21690:1 21691:1 21692:1 21693:1 21694:1 21695:1 21696:1 21697:1 21698:1 21699:1 21700:1 21701:1 21702:1 21703:1 21704:1 21705:1 21706:1 21707:1 21708:1 21709:1 21710:1 21711:1 21712:2 21713:1 21714:1 21715:1 21716:1 21717:1 21718:1 21719:1 21720:1 21721:1 21722:2 21723:2 21724:1 21725:1 21726:1 21727:1 21728:1 21729:1 21730:1 21731:1 21732:1 21733:1 21734:1 21735:1 21736:1 21737:1 21738:1 21739:1 21740:1 21741:1 21742:1 21743:1 21744:1 21745:1 21746:1 21747:1 21748:1 21749:1 21750:1 21751:1 21752:1 21753:1 21754:1 21755:1 21756:1 21757:1 21758:1 21759:1 21760:1 21761:1 21762:1 21763:1 21764:1 21765:1 21766:1 21767:1 21768:1 21769:1 21770:1 21771:1 21772:1 21773:1 21774:1 21775:1 21776:1 21777:1 21778:1 21779:1 21780:1 21781:1 21782:1 21783:1 21784:1 21785:1 21786:1 21787:1 21788:1 21789:1 21790:1 21791:1 21792:1 21793:1 21794:1 21795:1 21796:1 21797:1 21798:1 21799:1 21800:1 21801:1 21802:1 21803:1 21804:1 21805:1 21806:1 21807:1 21808:1 21809:1 21810:1 21811:1 21812:1 21813:1 21814:1 21815:1 21816:1 21817:5 21818:1 21819:1 21820:1 21821:1 21822:1 21823:1 21824:1 21825:1 21826:1 21827:1 21828:1 21829:1 21830:1 21831:1 21832:1 21833:1 21834:1 21835:1 21836:1 21837:1 21838:2 21839:1 21840:1 21841:1 21842:1 21843:1 21844:1 21845:1 21846:1 21847:1 21848:1 21849:1 21850:1 21851:1 21852:1 21853:1 21854:1 21855:1 21856:1 21857:1 21858:1 21859:1 21860:1 21861:1 21862:1 21863:1 21864:1 21865:1 21866:1 21867:1 21868:1 21869:1 21870:1 21871:1 21872:1 21873:1 21874:1 106496:1 107121:1 108735:1 108736:1 108911:1 108912:1 109817:1 110118:1 111868:1 112356:1 113805:1 113806:1 116164:1 116478:1 117096:1 118105:1 118974:1 120526:1 120656:1 120657:1 120658:1 120659:1 120660:1 120661:1 120662:1 120663:1 120664:1 120665:1 120666:1 120667:1 120668:1 120669:1 120670:1 120671:1 120672:1 120673:1 120674:1 120675:1 120676:1 120677:1 120678:1 120679:1 120680:1 120681:1 120682:1 120683:1 120684:1 120685:1 120686:1 120687:1 120688:1 120689:1 120690:1 120691:1 120692:1 120693:1 120694:1 120695:1 120696:1 120697:1 120698:1 120699:1 120700:1 120701:1 120702:1 120703:1 120704:1 120705:1 120706:1 120707:1 120708:1 120709:1 120710:1 120711:1 120712:1 120713:1 120714:1 120715:1 120716:1 120717:1 120718:1 120719:1 120720:2 120721:1 120722:1 120723:1 120724:1 120725:1 120726:1 120727:1 120728:1 120729:1 120730:1 120731:1 120732:1 120733:1 120734:1 120735:1 120736:1 120737:1 120738:1 120739:1 120740:1 120741:1 120742:1 120743:1 120744:1 120745:1 120746:1 120747:1 120748:1 120749:1 120750:1 120751:1 120752:1 120753:1 120754:1 120755:1 120756:1 120757:1 120758:1 120759:1 120760:1 120761:1 120762:1 120763:1 120764:1 120765:1 120766:1 120767:1 120768:1 120769:1 120770:1 120771:1 120772:1 120773:1 120774:1 120775:1 120776:1 120777:1 120778:1 120779:1 120780:1 120781:1 120782:1 120783:1 120784:1 120785:1 120786:1 120787:1 120788:1 120789:1 120790:1 120791:1 120792:1 120793:1 120794:1 120795:1 120796:1 120797:1 120798:1 120799:1 120800:1 120801:1 120802:1 120803:1 120804:1 120805:1 120806:1 120807:1 120808:1 120809:1 120810:1 120811:1 120812:1 120813:1 120814:1 120815:1 120816:1 120817:1 120818:1 120819:1 120820:1 120821:1 120822:1 120823:1 120824:1 120825:1 120826:1 120827:1 120828:1 120829:1 120830:1 120831:1 120832:1 120833:1 120834:1 120835:1 120836:1 120837:1 120838:1 120839:1 120840:1 120841:1 120842:1 120843:1 120844:1 120845:1 120846:1 120847:1 120848:1 120849:1 120850:1 120851:1 120852:1 120853:1 120854:1 120855:1 120856:1 120857:1 120858:1 120859:1 120860:1 120861:1 120862:1 120863:1 120864:1 120865:1 120866:1 120867:1 120868:1 120869:1 120870:1 120871:1 120872:1 120873:1 120874:1 120875:1 120876:1 120877:1 120878:1 120879:1 120880:2 120881:1 120882:1 120883:1 120884:1 120885:1 120886:1 120887:1 120888:1 120889:1 120890:1 120891:1 120892:1 120893:1 120894:1 120895:1 120896:1 120897:1 120898:1 120899:1 120900:1 120901:1 120902:1 120903:1 120904:1 120905:1 120906:1 120907:1 120908:1 120909:1 120910:1 120911:1 120912:1 120913:1 120914:1 120915:1 120916:1 120917:1 120918:1 120919:1 120920:1 120921:1 120922:1 120923:1 120924:1 120925:1 120926:1 120927:1 120928:1 120929:1 120930:1 120931:1 120932:1 120933:1 120934:1 120935:1 120936:1 
1 1:391 3:3 11:1 151:1 207:1 208:1 1551:1 1562:2 1566:1 1567:2 1568:1 1571:1 1577:1 1578:1 1600:5 1615:3 1617:1 1618:3 1630:1 1638:1 1643:1 1693:1 1719:1 1781:3 1804:1 1815:1 1873:1 1883:2 1963:1 2025:1 2156:2 2196:2 2259:1 2397:1 2446:2 2468:1 2547:1 2610:1 3118:1 3198:1 3378:1 3379:1 3380:1 3381:1 3382:2 3383:1 3384:1 3385:1 3386:1 3387:1 3388:2 3389:1 3390:1 3391:1 3392:1 3393:1 10418:1 10443:1 10490:1 10516:1 10584:1 10585:1 10780:2 10877:1 10880:1 10888:1 10894:2 10909:1 11001:1 11040:2 11041:1 11042:2 11055:1 11121:1 11130:1 11138:1 11152:1 11170:1 11236:1 11359:1 11511:1 11512:2 11556:1 11604:1 11628:2 11647:2 11852:1 11898:1 11992:1 12458:1 12669:2 12693:1 12821:1 12911:1 12962:1 12979:1 13124:1 13808:1 14008:1 14154:1 14155:2 14160:1 14569:1 15240:3 15256:1 15257:1 15260:1 15351:1 16352:1 16395:1 16650:1 17652:1 17965:1 19019:1 20037:1 20154:1 21063:1 21875:1 21876:1 21877:1 21878:1 21879:1 21880:1 21881:1 21882:1 21883:1 21884:1 21885:1 21886:1 21887:1 21888:1 21889:1 21890:1 21891:1 21892:1 21893:2 21894:1 21895:1 21896:1 21897:1 21898:1 21899:1 21900:1 21901:1 21902:1 21903:1 21904:1 21905:1 21906:1 21907:1 21908:1 21909:1 21910:1 21911:1 21912:1 21913:1 21914:1 21915:1 21916:1 21917:1 21918:1 21919:1 21920:1 21921:1 21922:1 21923:1 21924:1 21925:1 21926:1 21927:1 21928:1 21929:1 21930:1 21931:1 21932:1 21933:1 21934:1 21935:2 21936:1 21937:1 21938:1 21939:1 21940:1 21941:1 21942:1 21943:1 21944:1 21945:1 21946:1 21947:1 21948:1 21949:1 21950:1 21951:1 21952:1 21953:1 21954:1 21955:1 21956:1 21957:1 21958:1 21959:1 21960:1 21961:1 21962:1 21963:1 21964:1 21965:1 21966:1 21967:1 21968:1 21969:1 21970:1 21971:1 106634:1 107119:1 107120:1 107135:1 107254:1 107836:1 108031:1 108199:1 108318:1 109355:1 110797:1 110798:1 110799:1 110806:1 112194:1 112525:1 113563:1 115342:1 115873:1 116415:1 117191:1 118477:1 120937:1 120938:1 120939:1 120940:1 120941:1 120942:1 120943:1 120944:1 120945:1 120946:1 120947:1 120948:1 120949:1 120950:1 120951:1 120952:1 120953:1 120954:1 120955:1 120956:1 120957:1 120958:1 120959:2 120960:1 120961:1 120962:1 120963:1 120964:1 120965:1 120966:1 120967:1 120968:1 120969:1 120970:1 120971:1 120972:1 120973:1 120974:1 120975:1 120976:1 120977:1 120978:1 120979:1 120980:1 120981:1 120982:1 120983:1 120984:1 120985:1 120986:1 120987:1 120988:1 120989:1 120990:1 120991:1 120992:1 120993:1 120994:1 120995:1 120996:1 120997:1 120998:1 120999:1 121000:1 121001:1 121002:1 121003:1 121004:1 121005:1 121006:1 121007:1 121008:1 121009:1 121010:1 121011:1 121012:1 121013:1 121014:1 121015:1 121016:1 121017:1 121018:1 121019:1 121020:1 121021:1 121022:1 121023:1 121024:1 121025:1 121026:1 121027:1 121028:1 121029:1 121030:1 121031:1 121032:1 121033:1 121034:1 121035:1 121036:1 121037:1 121038:1 121039:1 121040:1 121041:1 121042:1 121043:1 121044:1 121045:1 121046:1 121047:1 121048:1 121049:1 121050:1 121051:1 121052:1 121053:1 121054:1 121055:1 121056:1 121057:1 121058:1 121059:1 121060:1 121061:1 121062:1 121063:1 121064:1 121065:1 121066:1 121067:1 121068:1 121069:1 
1 1:976 2:1 3:11 9:3 10:1 11:1 54:1 63:1 190:1 194:1 209:1 210:1 211:1 212:1 1551:1 1552:1 1556:1 1566:1 1569:1 1577:1 1578:1 1582:1 1585:2 1595:2 1597:1 1600:4 1612:25 1615:4 1623:5 1632:2 1644:1 1646:1 1655:2 1659:1 1705:2 1735:1 1834:1 1873:1 1877:1 1990:1 2004:1 2028:1 2082:4 2089:1 2092:1 2151:1 2173:3 2206:1 2238:2 2383:1 2391:1 2619:1 2620:1 2666:1 2678:1 2715:2 2722:3 2753:1 2754:1 2784:1 2875:2 2956:1 3246:1 3247:4 3272:1 3279:1 3280:5 3328:1 3388:5 3394:3 3395:1 3396:10 3397:1 3398:1 3399:4 3400:1 3401:3 3402:1 3403:3 3404:4 3405:1 3406:1 3407:4 3408:2 3409:1 3410:3 3411:4 3412:1 3413:1 3414:1 3415:2 3416:2 3417:2 3418:1 3419:1 3420:1 10393:5 10435:1 10450:1 10462:1 10490:1 10494:2 10516:1 10527:1 10536:1 10558:4 10570:1 10628:1 10744:1 10749:1 10780:2 10877:1 10924:1 11017:1 11039:1 11040:1 11041:1 11042:1 11056:1 11062:1 11080:2 11088:1 11138:1 11213:1 11236:2 11353:1 11549:1 11628:1 11677:1 11703:9 11750:1 11866:1 12092:1 12117:1 12211:1 12314:2 12341:1 12585:1 12735:1 12751:1 12874:1 12979:1 13118:1 13145:2 13161:1 13167:1 13176:1 13296:1 13546:1 13871:2 13877:1 13879:1 13890:1 14008:1 14293:3 14983:1 15357:1 15426:2 15617:1 15987:1 16290:1 16628:1 17066:1 17301:1 17456:1 17645:1 17995:1 18292:1 18352:1 18789:1 18930:1 18954:1 19012:1 19287:1 19288:1 19675:1 19724:1 19875:1 20232:3 20444:1 20890:1 20900:2 21217:1 21279:1 21927:1 21972:1 21973:1 21974:1 21975:1 21976:1 21977:2 21978:2 21979:1 21980:1 21981:1 21982:5 21983:1 21984:2 21985:2 21986:1 21987:5 21988:1 21989:1 21990:1 21991:1 21992:1 21993:1 21994:1 21995:1 21996:1 21997:1 21998:1 21999:2 22000:1 22001:1 22002:1 22003:3 22004:1 22005:1 22006:1 22007:1 22008:1 22009:1 22010:1 22011:1 22012:1 22013:1 22014:3 22015:1 22016:1 22017:1 22018:1 22019:1 22020:1 22021:1 22022:1 22023:1 22024:1 22025:1 22026:3 22027:2 22028:1 22029:2 22030:1 22031:1 22032:1 22033:1 22034:1 22035:1 22036:1 22037:1 22038:1 22039:1 22040:1 22041:1 22042:1 22043:1 22044:1 22045:1 22046:1 22047:1 22048:1 22049:3 22050:1 22051:2 22052:1 22053:1 22054:1 22055:1 22056:1 22057:1 22058:1 22059:1 22060:1 22061:1 22062:1 22063:1 22064:1 22065:1 22066:1 22067:2 22068:1 22069:1 22070:1 22071:1 22072:1 22073:1 22074:1 22075:1 22076:1 22077:1 22078:1 22079:1 22080:1 22081:1 22082:1 22083:1 22084:2 22085:1 22086:1 22087:1 22088:1 22089:1 22090:1 22091:1 22092:1 22093:1 22094:1 22095:1 22096:1 22097:1 22098:1 22099:1 22100:1 22101:1 22102:1 22103:1 22104:1 22105:1 22106:1 22107:1 22108:1 22109:1 22110:1 22111:1 22112:1 22113:1 22114:1 22115:1 22116:2 22117:2 22118:1 22119:1 22120:1 22121:1 22122:1 22123:1 22124:1 22125:1 22126:1 22127:1 22128:1 22129:1 22130:1 22131:1 22132:3 22133:1 22134:1 22135:1 22136:1 22137:1 22138:2 22139:1 22140:1 22141:1 22142:1 22143:1 22144:1 22145:1 22146:2 22147:1 22148:1 22149:1 22150:1 22151:1 22152:1 22153:1 22154:1 22155:1 22156:1 22157:1 22158:1 22159:1 22160:1 22161:1 22162:1 22163:1 22164:1 22165:1 22166:1 22167:1 22168:1 22169:1 22170:1 22171:1 22172:1 22173:1 22174:1 22175:1 22176:1 22177:1 22178:1 22179:1 22180:1 22181:1 22182:1 22183:1 22184:1 22185:1 22186:1 22187:1 22188:1 22189:1 22190:1 22191:1 22192:1 22193:1 22194:2 22195:1 22196:1 22197:1 22198:1 22199:1 22200:2 22201:1 22202:1 22203:1 22204:1 22205:2 22206:1 22207:1 22208:1 22209:1 22210:1 22211:1 22212:1 22213:1 22214:1 22215:1 22216:1 22217:1 22218:1 22219:1 22220:1 107119:1 107120:1 107121:1 107236:1 108328:1 110473:2 112032:2 112514:1 113106:1 113151:1 113482:1 113675:2 113916:1 114214:1 114705:1 114847:2 116137:1 116709:2 117442:1 118044:1 118435:2 118489:1 118728:1 118925:1 120598:1 120621:2 121070:1 121071:1 121072:1 121073:1 121074:1 121075:1 121076:2 121077:1 121078:1 121079:1 121080:1 121081:1 121082:1 121083:1 121084:2 121085:2 121086:1 121087:1 121088:1 121089:1 121090:1 121091:1 121092:1 121093:1 121094:1 121095:1 121096:1 121097:1 121098:1 121099:1 121100:1 121101:1 121102:1 121103:1 121104:1 121105:1 121106:1 121107:1 121108:1 121109:1 121110:1 121111:1 121112:1 121113:1 121114:1 121115:1 121116:1 121117:1 121118:1 121119:1 121120:1 121121:1 121122:3 121123:1 121124:1 121125:1 121126:1 121127:1 121128:2 121129:1 121130:1 121131:1 121132:1 121133:1 121134:1 121135:1 121136:1 121137:1 121138:2 121139:1 121140:1 121141:1 121142:1 121143:1 121144:1 121145:1 121146:1 121147:1 121148:1 121149:1 121150:1 121151:1 121152:1 121153:1 121154:1 121155:1 121156:1 121157:1 121158:1 121159:1 121160:1 121161:1 121162:1 121163:1 121164:1 121165:1 121166:1 121167:1 121168:1 121169:1 121170:1 121171:1 121172:1 121173:1 121174:1 121175:1 121176:1 121177:1 121178:1 121179:1 121180:1 121181:1 121182:1 121183:1 121184:1 121185:1 121186:1 121187:1 121188:1 121189:1 121190:1 121191:1 121192:1 121193:1 121194:1 121195:1 121196:2 121197:1 121198:1 121199:1 121200:1 121201:1 121202:1 121203:1 121204:1 121205:1 121206:1 121207:1 121208:1 121209:1 121210:1 121211:1 121212:1 121213:1 121214:1 121215:1 121216:1 121217:1 121218:1 121219:1 121220:1 121221:1 121222:1 121223:1 121224:1 121225:2 121226:1 121227:1 121228:1 121229:1 121230:1 121231:1 121232:1 121233:1 121234:1 121235:1 121236:1 121237:1 121238:1 121239:1 121240:1 121241:1 121242:1 121243:1 121244:1 121245:1 121246:1 121247:1 121248:1 121249:1 121250:1 121251:1 121252:1 121253:1 121254:1 121255:1 121256:1 121257:1 121258:1 121259:1 121260:1 121261:1 121262:1 121263:1 121264:1 121265:1 121266:1 121267:1 121268:1 121269:1 121270:1 121271:1 121272:1 121273:1 121274:1 121275:1 121276:1 121277:1 121278:1 121279:1 121280:1 121281:1 121282:1 121283:1 121284:1 121285:1 121286:1 121287:1 121288:1 121289:1 121290:1 121291:1 121292:1 121293:1 121294:1 121295:1 121296:1 121297:1 121298:1 121299:1 121300:1 121301:1 121302:1 121303:1 121304:1 121305:1 121306:1 121307:1 121308:1 121309:1 121310:1 121311:1 121312:1 121313:1 121314:1 121315:1 121316:1 121317:2 121318:1 121319:1 121320:1 121321:1 121322:1 121323:1 121324:1 121325:1 121326:1 121327:1 121328:1 121329:1 121330:1 121331:1 121332:1 121333:1 121334:1 121335:1 121336:1 121337:1 121338:1 121339:1 121340:1 121341:1 121342:1 121343:1 121344:1 121345:1 121346:1 121347:1 121348:1 121349:1 121350:1 121351:1 121352:1 121353:1 121354:1 121355:1 121356:1 121357:1 121358:1 121359:1 121360:1 121361:1 121362:1 121363:1 121364:1 121365:1 121366:1 121367:1 121368:1 121369:1 121370:1 121371:1 121372:1 121373:1 121374:1 121375:1 121376:1 121377:1 121378:1 121379:1 121380:1 121381:1 121382:1 121383:1 121384:1 121385:1 121386:1 121387:1 121388:1 121389:1 121390:1 121391:1 121392:1 121393:1 121394:1 121395:1 121396:1 121397:1 121398:1 121399:1 121400:1 121401:1 121402:1 121403:1 121404:1 121405:1 121406:1 121407:1 121408:1 121409:1 121410:1 121411:1 121412:1 121413:1 121414:1 121415:1 121416:1 121417:1 121418:1 
1 1:605 3:31 11:1 224:1 225:1 226:1 1551:5 1570:1 1571:1 1577:3 1578:1 1581:1 1585:1 1587:2 1596:5 1600:2 1609:1 1612:1 1613:2 1623:2 1631:1 1637:2 1655:1 1672:1 1705:2 1832:1 1859:1 1862:1 1879:2 1924:1 1938:1 2026:1 2115:1 2132:1 2140:1 2142:1 2151:1 2202:1 2228:1 2277:1 2296:1 2606:1 2648:1 2688:1 3079:2 3297:4 3330:1 3557:4 3558:6 3559:6 3560:3 3561:1 3562:1 3563:3 3564:1 3565:1 3566:1 3567:1 10426:1 10443:2 10444:1 10450:3 10488:1 10490:1 10516:4 10553:1 10561:1 10570:2 10675:1 10757:1 10780:2 11112:1 11113:1 11172:1 11326:1 11348:1 11394:1 11396:1 11693:1 11703:1 11712:1 11723:1 11821:1 11842:1 11912:1 11993:2 12048:1 12092:1 12112:1 12264:1 12518:1 12567:1 12971:1 13080:2 13081:1 13242:2 13243:2 13244:2 13415:1 13863:1 13953:1 14008:1 14244:1 14443:1 14895:1 14983:1 15220:1 15606:1 15629:1 15766:1 15767:1 15978:1 16013:1 16437:1 16561:1 17023:1 17526:1 17571:1 17644:1 17829:1 18212:1 18362:1 18976:1 19045:1 19255:1 19288:1 19456:1 19583:1 19864:1 19919:1 20043:1 20369:1 20435:1 20458:1 20581:1 20672:1 20673:2 20900:1 21197:1 21266:1 21286:1 21624:1 21706:1 22094:1 22304:1 23321:1 23322:1 23323:1 23324:1 23325:1 23326:1 23327:1 23328:1 23329:1 23330:1 23331:1 23332:1 23333:1 23334:1 23335:1 23336:1 23337:1 23338:2 23339:2 23340:1 23341:1 23342:1 23343:1 23344:1 23345:1 23346:1 23347:1 23348:1 23349:1 23350:1 23351:1 23352:1 23353:1 23354:1 23355:1 23356:1 23357:1 23358:1 23359:2 23360:1 23361:1 23362:1 23363:1 23364:1 23365:1 23366:1 23367:1 23368:1 23369:1 23370:1 23371:1 23372:1 23373:1 23374:1 23375:1 23376:1 23377:1 23378:1 23379:2 23380:1 23381:1 23382:1 23383:1 23384:1 23385:1 23386:1 23387:1 23388:1 23389:1 23390:1 23391:1 23392:1 23393:1 23394:1 23395:1 23396:1 23397:1 23398:1 23399:1 23400:1 23401:1 23402:1 23403:1 23404:1 23405:1 23406:2 23407:1 23408:1 23409:1 23410:1 23411:1 23412:1 23413:1 23414:1 23415:1 23416:1 23417:1 23418:1 23419:1 23420:1 23421:1 23422:1 23423:1 23424:1 23425:1 23426:1 23427:1 23428:1 23429:1 23430:1 23431:1 23432:1 23433:1 23434:1 23435:1 23436:1 23437:1 23438:1 23439:1 23440:1 23441:1 23442:1 23443:1 23444:1 23445:1 23446:1 23447:1 23448:1 23449:1 23450:1 23451:1 23452:1 23453:1 23454:1 23455:1 23456:1 106496:1 106830:1 107200:1 108124:1 108328:1 108741:1 108835:1 109484:1 109683:2 109684:2 109827:2 109890:1 110626:1 111742:1 112656:1 112657:1 112831:1 113093:1 113094:1 117400:1 117443:1 117574:1 118319:1 118484:1 118993:1 119108:1 119310:1 119591:1 120598:1 122631:1 122997:1 122998:1 122999:1 123000:1 123001:1 123002:1 123003:1 123004:1 123005:1 123006:1 123007:1 123008:1 123009:1 123010:1 123011:1 123012:1 123013:1 123014:1 123015:1 123016:1 123017:1 123018:1 123019:1 123020:1 123021:1 123022:1 123023:1 123024:1 123025:1 123026:2 123027:1 123028:1 123029:1 123030:1 123031:1 123032:1 123033:1 123034:1 123035:1 123036:1 123037:1 123038:1 123039:1 123040:1 123041:1 123042:1 123043:1 123044:1 123045:1 123046:1 123047:1 123048:1 123049:1 123050:1 123051:1 123052:1 123053:1 123054:1 123055:1 123056:1 123057:1 123058:1 123059:1 123060:1 123061:1 123062:1 123063:1 123064:1 123065:1 123066:1 123067:1 123068:1 123069:1 123070:1 123071:1 123072:1 123073:1 123074:1 123075:1 123076:1 123077:1 123078:1 123079:1 123080:1 123081:1 123082:1 123083:1 123084:1 123085:1 123086:1 123087:1 123088:1 123089:1 123090:1 123091:1 123092:1 123093:1 123094:1 123095:1 123096:1 123097:1 123098:1 123099:1 123100:1 123101:1 123102:1 123103:1 123104:1 123105:1 123106:1 123107:1 123108:1 123109:1 123110:1 123111:1 123112:1 123113:1 123114:1 123115:1 123116:1 123117:1 123118:1 123119:1 123120:1 123121:1 123122:1 123123:1 123124:1 123125:1 123126:1 123127:1 123128:1 123129:1 123130:1 123131:1 123132:1 123133:1 123134:1 123135:1 123136:1 123137:1 123138:1 123139:1 123140:1 123141:1 123142:1 123143:1 123144:1 123145:1 123146:1 123147:1 123148:1 123149:1 123150:1 123151:1 123152:1 123153:1 123154:1 123155:1 123156:1 123157:1 123158:1 123159:1 123160:1 123161:1 123162:1 123163:1 123164:1 123165:1 123166:1 123167:1 123168:1 123169:1 123170:1 123171:1 123172:1 123173:1 123174:1 123175:1 123176:1 123177:1 123178:1 123179:1 123180:1 123181:1 123182:1 123183:1 123184:1 123185:1 123186:1 123187:1 123188:1 123189:1 123190:1 123191:1 123192:1 123193:1 123194:1 
1 1:591 3:15 9:1 11:1 135:1 239:1 240:1 241:1 242:1 1551:1 1562:1 1576:1 1577:1 1578:1 1585:1 1587:1 1593:3 1594:1 1600:1 1611:1 1613:1 1615:1 1623:2 1655:2 1705:1 1734:1 1746:1 1757:1 1862:1 1871:1 1875:1 1885:1 1914:1 1937:1 1938:1 1994:1 2010:1 2036:1 2063:1 2147:2 2324:1 2535:1 2553:1 2649:1 2678:1 2910:4 2969:1 3618:1 3676:2 3677:2 3678:3 3679:4 3680:1 3681:1 3682:1 3683:1 3684:2 3685:1 3686:1 3687:1 3688:1 3689:3 3690:1 3691:1 10450:4 10489:1 10490:2 10528:1 10553:1 10561:1 10570:1 10744:1 10751:1 10894:1 10964:1 10968:1 11017:1 11138:1 11216:1 11359:1 11460:1 11511:1 11888:1 11969:1 12047:1 12048:1 12122:1 12494:1 12540:1 12636:1 12643:1 12931:1 13080:1 13129:1 13388:1 13437:1 13521:1 13585:1 13933:1 14073:1 14357:1 14446:1 14553:1 14933:1 16571:1 17149:1 17946:1 18303:1 18827:1 19044:1 19305:1 19308:1 19335:1 20615:1 22047:1 22827:1 23675:1 23676:1 24329:1 24417:1 24418:1 24419:1 24420:1 24421:1 24422:2 24423:1 24424:1 24425:1 24426:1 24427:1 24428:1 24429:1 24430:1 24431:1 24432:1 24433:1 24434:1 24435:1 24436:1 24437:1 24438:1 24439:1 24440:1 24441:1 24442:1 24443:1 24444:1 24445:1 24446:1 24447:1 24448:1 24449:1 24450:1 24451:1 24452:1 24453:1 24454:2 24455:1 24456:2 24457:2 24458:1 24459:1 24460:1 24461:1 24462:1 24463:1 24464:1 24465:1 24466:1 24467:1 24468:1 24469:1 24470:1 24471:1 24472:1 24473:1 24474:1 24475:2 24476:1 24477:1 24478:1 24479:1 24480:1 24481:1 24482:1 24483:1 24484:1 24485:1 24486:1 24487:1 24488:1 24489:1 24490:1 24491:1 24492:1 24493:1 24494:1 24495:1 24496:1 24497:1 24498:1 24499:1 24500:1 24501:1 24502:1 24503:1 24504:1 24505:1 24506:1 24507:1 24508:1 24509:1 24510:1 24511:1 24512:1 24513:1 24514:1 24515:1 24516:1 24517:1 24518:1 24519:1 24520:1 24521:1 24522:1 24523:1 24524:1 24525:1 24526:1 24527:1 24528:1 107694:1 108275:1 108976:1 110034:1 110099:1 110702:1 110788:1 110789:1 111317:1 118763:1 124535:1 124536:1 124537:1 124538:1 124539:1 124540:1 124541:1 124542:1 124543:1 124544:1 124545:1 124546:1 124547:1 124548:1 124549:1 124550:1 124551:1 124552:1 124553:1 124554:1 124555:1 124556:1 124557:1 124558:1 124559:1 124560:1 124561:1 124562:1 124563:1 124564:1 124565:1 124566:1 124567:1 124568:1 124569:1 124570:1 124571:1 124572:1 124573:1 124574:1 124575:1 124576:1 124577:1 124578:1 124579:1 124580:1 124581:1 124582:1 124583:1 124584:1 124585:1 124586:1 124587:1 124588:1 124589:1 124590:1 124591:1 124592:1 124593:1 124594:1 124595:1 124596:1 124597:1 124598:1 124599:1 124600:1 124601:1 124602:1 124603:1 124604:1 124605:1 124606:1 124607:1 124608:1 124609:1 124610:1 124611:1 124612:1 124613:1 124614:1 124615:1 124616:1 124617:1 124618:1 124619:1 124620:1 124621:1 124622:1 124623:1 124624:1 124625:1 124626:1 124627:1 124628:1 124629:1 124630:1 124631:1 124632:1 124633:1 124634:1 124635:1 124636:1 124637:1 124638:1 124639:1 124640:1 124641:1 124642:1 124643:1 124644:1 124645:1 124646:1 124647:1 124648:1 124649:1 124650:1 124651:1 124652:1 124653:1 124654:1 124655:1 124656:1 124657:1 124658:1 124659:1 124660:1 124661:1 124662:1 124663:1 124664:1 124665:1 124666:1 124667:1 124668:1 124669:1 124670:1 124671:1 124672:1 124673:1 124674:1 124675:1 124676:1 124677:1 124678:1 124679:1 
1 1:180 3:4 9:1 11:1 45:1 144:1 252:1 253:1 254:1 255:1 256:1 257:1 258:1 1551:1 1569:1 1573:1 1578:2 1593:1 1600:1 1612:1 1615:1 1642:1 1873:1 1883:1 1902:1 1994:1 1997:1 2005:1 2017:2 2025:1 2480:1 3732:1 3733:1 3734:1 3735:1 3736:1 3737:1 3738:2 3739:1 3740:1 10570:1 10877:1 10916:1 10968:1 11121:1 11173:1 11805:1 11912:1 12006:1 12007:1 12102:1 12261:1 12454:1 12738:1 12829:1 12830:1 12971:2 13421:1 13450:1 13473:1 13633:1 14275:1 14441:1 14442:1 14446:1 14758:1 15197:1 15792:1 17349:1 18480:2 18487:1 19019:1 23978:1 25058:1 25059:1 25060:1 25061:1 25062:1 25063:1 25064:1 25065:1 25066:1 25067:1 25068:1 25069:1 25070:1 25071:1 25072:1 25073:1 25074:1 25075:1 25076:1 25077:1 25078:1 25079:1 25080:1 25081:1 25082:1 25083:1 25084:1 25085:1 25086:1 25087:1 25088:1 25089:1 25090:1 25091:1 25092:1 25093:1 25094:1 25095:1 25096:1 107212:1 108235:1 108756:1 108961:1 109211:1 110856:1 111181:1 111575:1 116320:1 116344:2 122530:1 123231:1 125551:1 125552:1 125553:1 125554:1 125555:1 125556:1 125557:1 125558:1 125559:1 125560:1 125561:1 125562:1 125563:1 125564:1 125565:1 125566:1 125567:1 125568:1 125569:1 125570:1 125571:1 125572:1 125573:1 125574:1 125575:1 125576:1 125577:1 125578:1 125579:1 125580:1 125581:1 125582:1 125583:1 125584:1 125585:1 125586:1 125587:1 125588:1 125589:1 125590:1 125591:1 125592:1 125593:1 125594:1 125595:1 125596:1 125597:1 125598:1 125599:1 125600:1 125601:1 125602:1 125603:1 125604:1 125605:1 125606:1 
